{"learner":{"attributes":{"scikit_learn":"{\"_estimator_type\": \"classifier\"}"},"feature_names":["V1","V2","V3","V4","V5","V6","V7","V8","V9","V10","V11","V12","V13","V14","V15","V16","V17","V18","V19","V20","V21","V22","V23","V24","V25","V26","V27","V28","Amount"],"feature_types":["float","float","float","float","float","float","float","float","float","float","float","float","float","float","float","float","float","float","float","float","float","float","float","float","float","float","float","float","float"],"gradient_booster":{"model":{"gbtree_model_param":{"num_parallel_tree":"1","num_trees":"100"},"iteration_indptr":[0,1,2,3,4,5,6,7,8,9,10,11,12,13,14,15,16,17,18,19,20,21,22,23,24,25,26,27,28,29,30,31,32,33,34,35,36,37,38,39,40,41,42,43,44,45,46,47,48,49,50,51,52,53,54,55,56,57,58,59,60,61,62,63,64,65,66,67,68,69,70,71,72,73,74,75,76,77,78,79,80,81,82,83,84,85,86,87,88,89,90,91,92,93,94,95,96,97,98,99,100],"tree_info":[0,0,0,0,0,0,0,0,0,0,0,0,0,0,0,0,0,0,0,0,0,0,0,0,0,0,0,0,0,0,0,0,0,0,0,0,0,0,0,0,0,0,0,0,0,0,0,0,0,0,0,0,0,0,0,0,0,0,0,0,0,0,0,0,0,0,0,0,0,0,0,0,0,0,0,0,0,0,0,0,0,0,0,0,0,0,0,0,0,0,0,0,0,0,0,0,0,0,0,0],"trees":[{"base_weights":[-1.2356413E-7,1.876263E0,-1.6057458E0,-1.1870435E0,1.9305636E0,-1.7850943E0,-3.639149E-1,5.700407E-1,-1.6004282E0,1.9500146E0,-1.428755E0,-1.2666435E0,-1.8964044E0,5.1429737E-1,-1.156106E0,-1.8402455E0,-8.421611E-1,1.9635128E0,-6.082693E-1,-1.8102012E0,1.4679904E0,-1.6478349E0,-2.1394324E-1,-1.9111065E0,-7.360731E-1,1.5578492E0,-2.8526038E-1,6.06701E-1,-1.3283358E0,-1.0343837E0,-5.903055E-1,1.3762516E-1,-5.725287E-1,1.9730953E0,-3.792832E-1,3.3804503E-1,-1.6523366E0,-5.785932E-1,4.0191242E-1,-6.50789E-2,5.2751255E-1,-1.8657898E0,-1.2154377E0,5.9221715E-1,-1.0913512E0,6.7575896E-1,-1.9159324E0,-1.58599E0,6.389989E-1,1.8257635E0,-1.855239E0,3.406566E-1,-1.4821754E0,1.2232206E0,-1.68719E0,-6.2168384E-1,-1.5918525E0,3.1281602E-1,-5.615024E-1,3.693752E-1,-5.38894E-1,6.010728E-1,4.6550474E-1,-5.004696E-1,4.181275E-1,4.3317935E-1,-4.3182966E-1,1.7866036E-1,-5.767382E-1,-5.861415E-1,-4.8631737E-1,-2.398132E-1,-5.6261444E-1,-5.340947E-1,2.4424627E-1,-4.2198768E-1,1.390392E-1,5.4166013E-1,-5.147864E-1,-5.809154E-1,-4.898021E-1,-5.389373E-1,4.648389E-2,4.1108495E-1,-5.503175E-1,-4.7772115E-1,5.602414E-1,-6.50789E-2,-5.760155E-1,1.7046541E-1,-5.029476E-1,-1.0603332E-1,-5.852952E-1,-5.147864E-1,4.579209E-1,2.0159113E-1,-5.648748E-1,-5.002929E-1,-4.026133E-2,-5.026279E-1,5.0388847E-2],"categories":[],"categories_nodes":[],"categories_segments":[],"categories_sizes":[],"default_left":[0,0,0,0,0,0,0,0,0,0,0,0,0,0,0,0,0,0,0,0,0,0,0,0,0,0,0,0,0,0,0,0,0,0,0,0,0,0,0,0,0,0,0,0,0,0,0,0,0,0,0,0,0,0,0,0,0,0,0,0,0,0,0,0,0,0,0,0,0,0,0,0,0,0,0,0,0,0,0,0,0,0,0,0,0,0,0,0,0,0,0,0,0,0,0,0,0,0,0,0,0],"id":0,"left_children":[1,3,5,7,9,11,13,-1,15,17,19,21,23,25,27,29,31,33,35,37,39,41,43,45,47,49,51,53,55,57,-1,59,-1,61,63,65,67,-1,-1,-1,-1,69,71,73,75,77,79,81,83,85,87,89,91,93,95,97,99,-1,-1,-1,-1,-1,-1,-1,-1,-1,-1,-1,-1,-1,-1,-1,-1,-1,-1,-1,-1,-1,-1,-1,-1,-1,-1,-1,-1,-1,-1,-1,-1,-1,-1,-1,-1,-1,-1,-1,-1,-1,-1,-1,-1],"loss_changes":[8.566255E4,2.1833203E3,3.411625E3,2.952826E2,8.4465625E2,7.7016406E2,1.3465927E3,0E0,3.5273132E1,4.435586E2,8.5250656E1,9.503594E2,1.865664E2,7.665964E2,3.0971997E2,1.3677185E1,5.301956E1,2.8683594E2,6.774213E1,2.7393372E1,4.9071445E0,1.6164062E2,4.4696234E2,1.37125E2,1.64043E2,3.677732E2,3.9062604E2,1.3110928E2,1.7167383E2,4.1950985E1,0E0,5.984432E1,0E0,1.5990625E2,1.22875145E2,7.382444E1,2.0878578E1,0E0,0E0,0E0,0E0,2.170044E1,1.5933038E2,1.7494473E2,1.4893207E2,5.9841034E1,5.9757812E1,3.1972137E1,1.0018404E2,5.5721558E1,2.715805E0,1.5827992E2,9.402771E1,6.7222984E1,1.0384605E1,1.2902875E2,9.951758E1,0E0,0E0,0E0,0E0,0E0,0E0,0E0,0E0,0E0,0E0,0E0,0E0,0E0,0E0,0E0,0E0,0E0,0E0,0E0,0E0,0E0,0E0,0E0,0E0,0E0,0E0,0E0,0E0,0E0,0E0,0E0,0E0,0E0,0E0,0E0,0E0,0E0,0E0,0E0,0E0,0E0,0E0,0E0,0E0],"parents":[2147483647,0,0,1,1,2,2,3,3,4,4,5,5,6,6,8,8,9,9,10,10,11,11,12,12,13,13,14,14,15,15,16,16,17,17,18,18,19,19,20,20,21,21,22,22,23,23,24,24,25,25,26,26,27,27,28,28,29,29,31,31,33,33,34,34,35,35,36,36,41,41,42,42,43,43,44,44,45,45,46,46,47,47,48,48,49,49,50,50,51,51,52,52,53,53,54,54,55,55,56,56],"right_children":[2,4,6,8,10,12,14,-1,16,18,20,22,24,26,28,30,32,34,36,38,40,42,44,46,48,50,52,54,56,58,-1,60,-1,62,64,66,68,-1,-1,-1,-1,70,72,74,76,78,80,82,84,86,88,90,92,94,96,98,100,-1,-1,-1,-1,-1,-1,-1,-1,-1,-1,-1,-1,-1,-1,-1,-1,-1,-1,-1,-1,-1,-1,-1,-1,-1,-1,-1,-1,-1,-1,-1,-1,-1,-1,-1,-1,-1,-1,-1,-1,-1,-1,-1,-1],"split_conditions":[4.394532E-2,-7.0990896E-1,-1.0441872E-2,-4.4568932E-1,1.6533176E0,4.1204408E-1,3.783371E-1,5.700407E-1,-8.546295E-1,8.341533E-1,2.1137278E0,-3.767748E-1,1.5247341E0,5.393329E-1,2.3458135E-1,1.2883998E-1,6.142067E-1,9.261429E-1,-3.1124917E-1,2.2061716E-1,2.403565E-1,-6.957707E-1,6.566028E-1,-4.1128216E0,1.8382251E-1,1.2621871E0,-1.3334294E-1,1.0315326E0,-1.8240012E-1,3.5896322E-1,-5.903055E-1,3.005799E-1,-5.725287E-1,7.707879E-2,-2.1840964E-1,-3.2624368E-2,-5.075922E-1,-5.785932E-1,4.0191242E-1,-6.50789E-2,5.2751255E-1,-3.6010152E-1,1.486478E0,-1.3398389E0,1.7315231E-1,3.1863225E-1,3.85211E-1,-1.2525988E-1,5.667547E-1,-1.5924357E0,4.13809E-2,6.720722E-1,5.6127363E-1,-6.605981E-1,-8.053536E-1,-4.9402308E-2,3.3112366E0,3.1281602E-1,-5.615024E-1,3.693752E-1,-5.38894E-1,6.010728E-1,4.6550474E-1,-5.004696E-1,4.181275E-1,4.3317935E-1,-4.3182966E-1,1.7866036E-1,-5.767382E-1,-5.861415E-1,-4.8631737E-1,-2.398132E-1,-5.6261444E-1,-5.340947E-1,2.4424627E-1,-4.2198768E-1,1.390392E-1,5.4166013E-1,-5.147864E-1,-5.809154E-1,-4.898021E-1,-5.389373E-1,4.648389E-2,4.1108495E-1,-5.503175E-1,-4.7772115E-1,5.602414E-1,-6.50789E-2,-5.760155E-1,1.7046541E-1,-5.029476E-1,-1.0603332E-1,-5.852952E-1,-5.147864E-1,4.579209E-1,2.0159113E-1,-5.648748E-1,-5.002929E-1,-4.026133E-2,-5.026279E-1,5.0388847E-2],"split_indices":[13,3,3,9,0,13,11,0,3,11,15,3,6,13,13,6,4,9,10,18,8,3,11,22,18,2,7,2,7,5,0,2,0,11,20,2,12,0,0,0,0,10,0,10,10,11,19,3,22,10,3,17,2,25,12,21,4,0,0,0,0,0,0,0,0,0,0,0,0,0,0,0,0,0,0,0,0,0,0,0,0,0,0,0,0,0,0,0,0,0,0,0,0,0,0,0,0,0,0,0,0],"split_type":[0,0,0,0,0,0,0,0,0,0,0,0,0,0,0,0,0,0,0,0,0,0,0,0,0,0,0,0,0,0,0,0,0,0,0,0,0,0,0,0,0,0,0,0,0,0,0,0,0,0,0,0,0,0,0,0,0,0,0,0,0,0,0,0,0,0,0,0,0,0,0,0,0,0,0,0,0,0,0,0,0,0,0,0,0,0,0,0,0,0,0,0,0,0,0,0,0,0,0,0,0],"sum_hessian":[2.8430854E4,1.3110951E4,1.5319901E4,2.2799481E2,1.2882957E4,1.3386195E4,1.9337059E3,2.6499397E1,2.014954E2,1.2809208E4,7.374832E1,2.368196E3,1.1017999E4,9.172291E2,1.01647687E3,1.5199654E2,4.9498875E1,1.274221E4,6.6998474E1,6.549851E1,8.249812E0,1.7382104E3,6.2998566E2,1.0879502E4,1.3849684E2,3.9749094E2,5.1973816E2,9.024795E1,9.262289E2,2.1999498E1,1.2999704E2,2.6249403E1,2.324947E1,1.2690461E4,5.174882E1,3.549919E1,3.1499283E1,6.3498554E1,1.9999545E0,1.2499715E0,6.9998407E0,1.1534738E3,5.847367E2,3.2849252E2,3.0149313E2,1.9999544E1,1.0859503E4,8.5498055E1,5.2998795E1,3.689916E2,2.8499352E1,3.4174222E2,1.7799594E2,7.1498375E1,1.8749573E1,2.5249425E2,6.737347E2,6.249858E0,1.5749641E1,1.6999613E1,9.249789E0,1.183098E4,8.594804E2,2.9999317E1,2.1749504E1,2.1999498E1,1.3499693E1,3.249926E0,2.8249357E1,8.432308E2,3.1024295E2,3.599918E2,2.2474489E2,2.7499374E1,3.0099313E2,2.507443E2,5.0748844E1,1.3749687E1,6.249858E0,1.012277E4,7.367332E2,7.624826E1,9.249789E0,4.124906E1,1.1749732E1,3.999909E0,3.649917E2,1.2499715E0,2.724938E1,3.0774298E2,3.3999226E1,5.27488E1,1.2524715E2,6.249858E0,6.524851E1,1.2499715E0,1.7499601E1,7.949819E1,1.7299606E2,6.4323535E2,3.0499306E1],"tree_param":{"num_deleted":"0","num_feature":"29","num_nodes":"101","size_leaf_vector":"1"}},{"base_weights":[-4.6722495E-4,1.4442707E0,-1.2267065E0,-1.0008966E0,1.4848833E0,-1.3736839E0,-3.0197862E-1,1.4601481E0,-1.3207474E0,1.5483134E0,8.027409E-1,-9.987265E-1,-1.4728968E0,4.5496857E-1,-8.341853E-1,4.499051E-1,1.1366423E-1,-1.484623E0,-6.975295E-1,-4.280696E-1,1.5488963E0,-2.465397E-1,1.3833677E0,-1.2643687E0,-2.017882E-1,-1.4843035E0,-5.8834064E-1,8.3887464E-1,-1.0275327E0,-4.7060916E-1,-1.4390129E0,-4.5776594E-1,-8.8437897E-1,5.651245E-2,-4.5425686E-1,9.064794E-1,1.5509102E0,7.577218E-1,-1.3456193E0,6.3178205E-1,1.4964253E0,-1.482523E0,-9.8258495E-1,2.505526E-1,-1.257126E0,5.367327E-1,-1.4882585E0,-1.2218294E0,5.255176E-1,1.3154056E0,-1.03890955E-1,1.2773103E0,-1.5403163E0,7.318614E-1,-7.4643755E-1,-1.5367022E0,4.034135E-1,1.783045E-1,-3.754307E-1,2.6323113E-1,-4.3953866E-1,4.5900023E-1,-5.5299366E-1,4.6537468E-1,-2.570279E-1,3.6913103E-1,-1.2811185E-1,2.8906274E-1,-4.7649136E-1,-5.875621E-1,3.137399E-1,-4.5772249E-1,4.5241228E-1,-4.5405358E-1,-3.4241033E-1,-4.4505456E-1,-1.8628213E-1,2.4923678E-1,-2.2515829E-1,1.605801E-2,-4.3051264E-1,4.2004386E-1,-4.0528968E-1,-4.4984636E-1,-3.1753504E-1,-1.4642943E-1,-4.6788487E-1,-4.4083497E-1,3.6357746E-1,-4.678876E-1,4.1992465E-1,1.5690766E-1,-4.179789E-1,4.7886384E-1,-3.7314066E-1,3.6737734E-1,-4.8657218E-1,3.1513748E-1,-3.9758807E-1,-3.0344057E-1,8.850456E-2,-4.6524495E-1,-1.7088228E-1,5.049953E-1,-4.3541482E-1],"categories":[],"categories_nodes":[],"categories_segments":[],"categories_sizes":[],"default_left":[0,0,0,0,0,0,0,0,0,0,0,0,0,0,0,0,0,0,0,0,0,0,0,0,0,0,0,0,0,0,0,0,0,0,0,0,0,0,0,0,0,0,0,0,0,0,0,0,0,0,0,0,0,0,0,0,0,0,0,0,0,0,0,0,0,0,0,0,0,0,0,0,0,0,0,0,0,0,0,0,0,0,0,0,0,0,0,0,0,0,0,0,0,0,0,0,0,0,0,0,0,0,0,0,0],"id":1,"left_children":[1,3,5,7,9,11,13,15,17,19,21,23,25,27,29,-1,-1,31,33,-1,35,37,39,41,43,45,47,49,51,53,55,-1,57,59,-1,61,63,65,67,69,71,73,75,77,79,81,83,85,87,89,91,93,95,97,99,101,103,-1,-1,-1,-1,-1,-1,-1,-1,-1,-1,-1,-1,-1,-1,-1,-1,-1,-1,-1,-1,-1,-1,-1,-1,-1,-1,-1,-1,-1,-1,-1,-1,-1,-1,-1,-1,-1,-1,-1,-1,-1,-1,-1,-1,-1,-1,-1,-1],"loss_changes":[4.6544715E4,1.1992734E3,1.9310625E3,1.5752147E2,5.121406E2,4.5467578E2,7.86034E2,4.2397308E-1,1.6883392E1,2.1039062E1,6.165929E2,5.4353906E2,9.693555E1,4.5945792E2,2.5121063E2,0E0,0E0,2.0694885E0,2.3742004E1,0E0,1.2634766E1,3.9967844E2,5.4399414E1,1.1695996E2,3.074358E2,7.7296875E1,8.88954E1,2.8792093E2,1.9838507E2,2.383234E2,7.793512E1,0E0,6.854082E0,2.7440052E1,0E0,6.5097626E1,1.0146484E1,1.06583755E2,9.8372986E1,9.523865E1,2.2149902E1,9.730225E0,1.5189496E2,2.626904E2,4.5125885E1,3.355429E1,4.451367E1,1.9073563E1,6.483094E1,1.0538086E2,1.7532925E2,2.6741653E1,3.275638E1,8.9391205E1,1.613902E2,4.687744E0,5.5671154E1,0E0,0E0,0E0,0E0,0E0,0E0,0E0,0E0,0E0,0E0,0E0,0E0,0E0,0E0,0E0,0E0,0E0,0E0,0E0,0E0,0E0,0E0,0E0,0E0,0E0,0E0,0E0,0E0,0E0,0E0,0E0,0E0,0E0,0E0,0E0,0E0,0E0,0E0,0E0,0E0,0E0,0E0,0E0,0E0,0E0,0E0,0E0,0E0],"parents":[2147483647,0,0,1,1,2,2,3,3,4,4,5,5,6,6,7,7,8,8,9,9,10,10,11,11,12,12,13,13,14,14,17,17,18,18,20,20,21,21,22,22,23,23,24,24,25,25,26,26,27,27,28,28,29,29,30,30,32,32,33,33,35,35,36,36,37,37,38,38,39,39,40,40,41,41,42,42,43,43,44,44,45,45,46,46,47,47,48,48,49,49,50,50,51,51,52,52,53,53,54,54,55,55,56,56],"right_children":[2,4,6,8,10,12,14,16,18,20,22,24,26,28,30,-1,-1,32,34,-1,36,38,40,42,44,46,48,50,52,54,56,-1,58,60,-1,62,64,66,68,70,72,74,76,78,80,82,84,86,88,90,92,94,96,98,100,102,104,-1,-1,-1,-1,-1,-1,-1,-1,-1,-1,-1,-1,-1,-1,-1,-1,-1,-1,-1,-1,-1,-1,-1,-1,-1,-1,-1,-1,-1,-1,-1,-1,-1,-1,-1,-1,-1,-1,-1,-1,-1,-1,-1,-1,-1,-1,-1,-1],"split_conditions":[4.394532E-2,-7.3780215E-1,-3.5634257E-2,-4.4568932E-1,1.826236E-2,4.4721988E-1,3.09707E-1,-4.0565297E-1,9.432652E-2,-1.0052303E0,5.528569E-2,-3.767748E-1,1.5247341E0,1.1103549E0,-1.02253325E-1,4.499051E-1,1.1366423E-1,-7.8113407E-1,6.387545E-1,-4.280696E-1,-5.903983E-1,4.6184638E-1,-2.2287288E-1,-8.248581E-1,1.1728513E-1,-4.1128216E0,2.6337767E-1,8.736751E-1,-2.040805E0,3.326725E-1,1.7556558E0,-4.5776594E-1,-5.5000633E-1,-2.6809496E-1,-4.5425686E-1,1.214221E0,8.442726E-1,5.213637E-1,2.7254674E-1,-7.937867E-1,-1.3852062E0,5.8539927E-1,-8.8153535E-1,5.881437E-1,9.118411E-2,3.1863225E-1,6.704941E-1,-7.4317163E-1,1.795314E-1,-1.815604E0,-9.121647E-2,6.266989E-1,-2.1689808E0,1.2621871E0,-2.1801022E-1,1.590472E0,-1.4860423E0,1.783045E-1,-3.754307E-1,2.6323113E-1,-4.3953866E-1,4.5900023E-1,-5.5299366E-1,4.6537468E-1,-2.570279E-1,3.6913103E-1,-1.2811185E-1,2.8906274E-1,-4.7649136E-1,-5.875621E-1,3.137399E-1,-4.5772249E-1,4.5241228E-1,-4.5405358E-1,-3.4241033E-1,-4.4505456E-1,-1.8628213E-1,2.4923678E-1,-2.2515829E-1,1.605801E-2,-4.3051264E-1,4.2004386E-1,-4.0528968E-1,-4.4984636E-1,-3.1753504E-1,-1.4642943E-1,-4.6788487E-1,-4.4083497E-1,3.6357746E-1,-4.678876E-1,4.1992465E-1,1.5690766E-1,-4.179789E-1,4.7886384E-1,-3.7314066E-1,3.6737734E-1,-4.8657218E-1,3.1513748E-1,-3.9758807E-1,-3.0344057E-1,8.850456E-2,-4.6524495E-1,-1.7088228E-1,5.049953E-1,-4.3541482E-1],"split_indices":[13,3,3,9,9,13,11,0,22,10,3,3,6,2,7,0,0,3,8,0,10,4,20,3,12,22,18,13,18,13,9,0,1,14,0,16,11,11,6,21,10,18,10,8,13,11,22,25,8,10,20,5,26,2,10,9,5,0,0,0,0,0,0,0,0,0,0,0,0,0,0,0,0,0,0,0,0,0,0,0,0,0,0,0,0,0,0,0,0,0,0,0,0,0,0,0,0,0,0,0,0,0,0,0,0],"split_type":[0,0,0,0,0,0,0,0,0,0,0,0,0,0,0,0,0,0,0,0,0,0,0,0,0,0,0,0,0,0,0,0,0,0,0,0,0,0,0,0,0,0,0,0,0,0,0,0,0,0,0,0,0,0,0,0,0,0,0,0,0,0,0,0,0,0,0,0,0,0,0,0,0,0,0,0,0,0,0,0,0,0,0,0,0,0,0,0,0,0,0,0,0,0,0,0,0,0,0,0,0,0,0,0,0],"sum_hessian":[2.6270781E4,1.2060771E4,1.421001E4,1.9666196E2,1.1864109E4,1.226078E4,1.9492294E3,2.2209461E1,1.7445248E2,1.0853601E4,1.0105084E3,2.5676965E3,9.693083E3,8.0476825E2,1.144461E3,2.1052717E1,1.1567427E0,1.3703647E2,3.7416027E1,1.6471466E0,1.0851954E4,3.6018143E2,6.5032697E2,1.9253396E3,6.42357E2,9.569011E3,1.24072586E2,6.3957825E2,1.6518999E2,7.158967E2,4.2856436E2,1.2677899E2,1.0257471E1,1.9937786E1,1.747824E1,3.5322784E1,1.0816631E4,1.8837146E2,1.7180997E2,8.5895775E1,5.644312E2,1.0827916E3,8.425479E2,4.5016785E2,1.9218918E2,1.8426613E1,9.550584E3,7.902912E1,4.5043465E1,4.2457635E2,2.150019E2,2.9791813E1,1.3539818E2,1.3326707E2,5.8262964E2,4.0714276E2,2.1421606E1,1.9166822E0,8.340789E0,1.3225823E1,6.711963E0,2.9155342E1,6.1674438E0,1.0815466E4,1.165493E0,1.3462006E2,5.3751404E1,1.605695E1,1.5575302E2,1.1322899E1,7.4572876E1,1.661988E0,5.627692E2,9.894757E2,9.3315994E1,3.5194745E2,4.9060043E2,2.850943E2,1.6507355E2,2.305432E1,1.6913486E2,1.2820794E1,5.6058187E0,9.304992E3,2.4559196E2,2.5684E1,5.334512E1,1.1238681E1,3.3804783E1,1.1602069E1,4.1297427E2,1.4506364E2,6.993826E1,2.6772186E1,3.0196257E0,3.4794517E0,1.3191873E2,1.1581923E2,1.7447853E1,4.6446136E2,1.1816828E2,4.0069125E2,6.4515014E0,1.2729827E1,8.691779E0],"tree_param":{"num_deleted":"0","num_feature":"29","num_nodes":"105","size_leaf_vector":"1"}},{"base_weights":[5.998284E-4,1.2434437E0,-1.0271342E0,1.3347992E0,4.044971E-1,-1.1559812E0,-2.1142872E-1,-9.2210716E-1,1.3377764E0,-4.9528632E-1,1.1520497E0,-8.149279E-1,-1.2690226E0,1.499506E-1,-9.6899956E-1,2.4969965E-1,-3.7365577E-1,4.9538317E-1,1.3418045E0,6.703401E-1,-8.219335E-1,1.197621E0,-1.1824136E0,-1.1844516E0,-3.9021075E-1,-1.28011E0,-4.725243E-1,6.536775E-1,-5.21865E-1,-4.1083094E-1,-4.1448757E-1,1.1659536E0,-1.5485308E0,1.3423063E0,-2.6521862E-1,1.0959985E0,-8.094371E-1,-5.0488955E-1,-1.6953334E0,-6.054978E-1,1.2220954E0,-6.466727E-1,7.003741E-1,-1.2493278E0,-6.6885877E-1,-6.0070075E-2,-1.328283E0,-1.2999458E0,-8.8194746E-1,-1.2665968E0,2.5763333E-1,9.196527E-1,-1.4141327E0,2.8782785E-1,-1.0334069E0,-1.1388735E0,3.9025977E-1,-2.4665834E-1,3.831142E-1,-5.1930994E-1,3.1920217E-2,4.0311787E-1,2.7305287E-1,3.7706804E-1,-3.928978E-1,2.8402537E-1,-4.2495385E-1,-3.5162488E-1,2.8433211E-2,9.873157E-2,-5.168388E-1,-1.1775818E-1,3.7516552E-1,2.8311303E-1,1.7570605E-3,-3.4601092E-1,-4.0772036E-1,-4.090692E-1,-9.650246E-3,8.6367525E-2,-3.965457E-1,-4.1742623E-1,5.204044E-1,-3.954043E-1,-3.1915772E-1,2.2260284E-1,-3.854273E-1,2.3091514E-1,-4.0287533E-1,2.6414368E-1,-4.3554816E-1,3.0370185E-1,-4.7987306E-1,-4.4545293E-1,-4.6794713E-2,2.1404059E-1,-3.610968E-1,-3.7327588E-1,2.4835372E-1,-3.7844872E-1,2.7790213E-1,-1.8462262E-1,3.2158342E-1],"categories":[],"categories_nodes":[],"categories_segments":[],"categories_sizes":[],"default_left":[0,0,0,0,0,0,0,0,0,0,0,0,0,0,0,0,0,0,0,0,0,0,0,0,0,0,0,0,0,0,0,0,0,0,0,0,0,0,0,0,0,0,0,0,0,0,0,0,0,0,0,0,0,0,0,0,0,0,0,0,0,0,0,0,0,0,0,0,0,0,0,0,0,0,0,0,0,0,0,0,0,0,0,0,0,0,0,0,0,0,0,0,0,0,0,0,0,0,0,0,0,0,0],"id":2,"left_children":[1,3,5,7,9,11,13,15,17,19,21,23,25,27,29,-1,-1,31,33,35,37,39,41,43,45,47,49,51,53,55,-1,57,59,61,-1,63,65,67,69,-1,71,-1,73,75,77,79,81,83,85,87,89,91,93,95,97,99,101,-1,-1,-1,-1,-1,-1,-1,-1,-1,-1,-1,-1,-1,-1,-1,-1,-1,-1,-1,-1,-1,-1,-1,-1,-1,-1,-1,-1,-1,-1,-1,-1,-1,-1,-1,-1,-1,-1,-1,-1,-1,-1,-1,-1,-1,-1],"loss_changes":[2.859635E4,7.761123E2,1.2877119E3,6.2631836E1,6.7087756E2,4.0695703E2,4.5812485E2,8.203246E0,3.0305664E1,1.7300087E2,5.9354797E1,4.1342786E2,6.957031E1,3.8391525E2,1.2389575E2,0E0,0E0,6.3505676E1,1.1330078E1,6.3681213E1,9.723279E1,4.45506E1,2.1538378E1,4.6319824E1,3.8036874E2,6.074707E1,6.449942E1,3.5780515E2,2.0169731E2,1.3523827E2,0E0,8.662716E0,3.6727142E0,4.3476562E0,0E0,3.1777245E1,2.569767E1,1.04661575E2,5.7883606E0,0E0,2.4900635E1,0E0,7.515204E-1,1.1606323E1,7.059891E1,3.9978183E2,6.424866E1,3.0430664E1,2.462557E2,9.300003E0,6.3556988E1,1.3586679E2,6.3756256E0,1.20869835E2,1.1805716E2,3.189531E1,7.660675E1,0E0,0E0,0E0,0E0,0E0,0E0,0E0,0E0,0E0,0E0,0E0,0E0,0E0,0E0,0E0,0E0,0E0,0E0,0E0,0E0,0E0,0E0,0E0,0E0,0E0,0E0,0E0,0E0,0E0,0E0,0E0,0E0,0E0,0E0,0E0,0E0,0E0,0E0,0E0,0E0,0E0,0E0,0E0,0E0,0E0,0E0],"parents":[2147483647,0,0,1,1,2,2,3,3,4,4,5,5,6,6,7,7,8,8,9,9,10,10,11,11,12,12,13,13,14,14,17,17,18,18,19,19,20,20,21,21,22,22,23,23,24,24,25,25,26,26,27,27,28,28,29,29,31,31,32,32,33,33,35,35,36,36,37,37,38,38,40,40,42,42,43,43,44,44,45,45,46,46,47,47,48,48,49,49,50,50,51,51,52,52,53,53,54,54,55,55,56,56],"right_children":[2,4,6,8,10,12,14,16,18,20,22,24,26,28,30,-1,-1,32,34,36,38,40,42,44,46,48,50,52,54,56,-1,58,60,62,-1,64,66,68,70,-1,72,-1,74,76,78,80,82,84,86,88,90,92,94,96,98,100,102,-1,-1,-1,-1,-1,-1,-1,-1,-1,-1,-1,-1,-1,-1,-1,-1,-1,-1,-1,-1,-1,-1,-1,-1,-1,-1,-1,-1,-1,-1,-1,-1,-1,-1,-1,-1,-1,-1,-1,-1,-1,-1,-1,-1,-1,-1],"split_conditions":[4.394532E-2,3.9757986E-2,-1.0441872E-2,-8.826113E-1,5.528569E-2,4.8103407E-1,1.0124023E0,-3.498303E-1,-5.6676227E-1,1.4148541E-1,1.209248E0,-5.948762E-1,1.5247341E0,7.839921E-1,-1.3334294E-1,2.4969965E-1,-3.7365577E-1,1.214221E0,8.442726E-1,4.555211E-1,1.3332568E0,-1.9219868E0,-1.6585828E-1,5.353255E-1,1.4245062E0,1.1065606E-1,3.3664797E-2,1.27947E0,2.2722326E-1,-5.3113747E-1,-4.1448757E-1,-7.5713384E-1,9.7887444E-1,-5.399219E-2,-2.6521862E-1,1.2820506E0,-1.0443026E0,-5.0348806E-1,-8.906684E-1,-6.054978E-1,-1.03859E0,-6.466727E-1,-4.5701563E-1,3.2308322E-1,-9.7738564E-1,1.2621871E0,1.1009082E0,3.2185382E-1,-1.0573063E0,8.758825E-2,8.826791E-1,9.353744E-1,7.764194E-1,4.318606E-1,2.5973876E0,1.5383024E0,-7.069041E-3,-2.4665834E-1,3.831142E-1,-5.1930994E-1,3.1920217E-2,4.0311787E-1,2.7305287E-1,3.7706804E-1,-3.928978E-1,2.8402537E-1,-4.2495385E-1,-3.5162488E-1,2.8433211E-2,9.873157E-2,-5.168388E-1,-1.1775818E-1,3.7516552E-1,2.8311303E-1,1.7570605E-3,-3.4601092E-1,-4.0772036E-1,-4.090692E-1,-9.650246E-3,8.6367525E-2,-3.965457E-1,-4.1742623E-1,5.204044E-1,-3.954043E-1,-3.1915772E-1,2.2260284E-1,-3.854273E-1,2.3091514E-1,-4.0287533E-1,2.6414368E-1,-4.3554816E-1,3.0370185E-1,-4.7987306E-1,-4.4545293E-1,-4.6794713E-2,2.1404059E-1,-3.610968E-1,-3.7327588E-1,2.4835372E-1,-3.7844872E-1,2.7790213E-1,-1.8462262E-1,3.2158342E-1],"split_indices":[13,9,3,3,3,13,2,4,10,6,12,3,6,13,7,0,0,16,11,11,17,23,20,18,0,20,14,0,11,10,0,18,23,13,0,23,7,3,7,0,10,0,1,4,3,2,24,19,12,16,5,24,4,17,4,17,27,0,0,0,0,0,0,0,0,0,0,0,0,0,0,0,0,0,0,0,0,0,0,0,0,0,0,0,0,0,0,0,0,0,0,0,0,0,0,0,0,0,0,0,0,0,0],"split_type":[0,0,0,0,0,0,0,0,0,0,0,0,0,0,0,0,0,0,0,0,0,0,0,0,0,0,0,0,0,0,0,0,0,0,0,0,0,0,0,0,0,0,0,0,0,0,0,0,0,0,0,0,0,0,0,0,0,0,0,0,0,0,0,0,0,0,0,0,0,0,0,0,0,0,0,0,0,0,0,0,0,0,0,0,0,0,0,0,0,0,0,0,0,0,0,0,0,0,0,0,0,0,0],"sum_hessian":[2.2385896E4,1.0132456E4,1.2253439E4,9.136918E3,9.9553827E2,1.058158E4,1.6718599E3,1.1630377E1,9.125288E3,4.5192328E2,5.43615E2,2.6361992E3,7.9453804E3,1.1324543E3,5.394056E2,1.5653107E0,1.0065066E1,4.4017277E1,9.0812705E3,9.869219E1,3.5323108E2,5.336839E2,9.931141E0,1.4087406E3,1.2274586E3,7.8356987E3,1.0968182E2,6.472064E2,4.8524796E2,2.3011676E2,3.0928882E2,3.346694E1,1.0550338E1,9.07962E3,1.6498078E0,7.6846596E1,2.1845596E1,2.603149E2,9.2916176E1,3.4155216E0,5.302684E2,6.451598E0,3.4795423E0,1.2500283E3,1.5871223E2,9.087141E2,3.187445E2,7.461702E3,3.7399628E2,5.2189346E1,5.7492474E1,5.73938E2,7.326838E1,1.8804253E2,2.972054E2,1.2033393E2,1.0978283E2,1.4323566E0,3.2034584E1,9.461013E0,1.0893246E0,9.047782E3,3.1838543E1,7.2476746E1,4.3698545E0,5.4679685E0,1.6377626E1,1.2276793E2,1.3754698E2,1.0965769E0,9.1819595E1,8.962069E0,5.213063E2,2.3110323E0,1.16851E0,6.73031E2,5.769974E2,7.5352325E1,8.335991E1,7.128877E2,1.9582648E2,3.1284152E2,5.9029627E0,6.92698E3,5.347225E2,7.416258E1,2.9983368E2,1.5571733E0,5.063217E1,4.2494465E1,1.4998011E1,5.5414813E2,1.9789894E1,6.919909E1,4.069297E0,1.4669908E2,4.1343452E1,2.6726108E2,2.9944334E1,1.139569E2,6.377031E0,4.4391163E1,6.539166E1],"tree_param":{"num_deleted":"0","num_feature":"29","num_nodes":"103","size_leaf_vector":"1"}},{"base_weights":[6.03105E-4,1.1148051E0,-9.019646E-1,1.2206264E0,3.1889644E-1,-1.0343848E0,-2.4663225E-1,-3.351325E-1,1.2232535E0,-3.9531508E-1,1.0519837E0,-7.162423E-1,-1.1441604E0,2.3371962E-1,-6.97175E-1,1.2240834E0,-3.186E-1,5.362624E-2,-8.1832737E-1,-1.7007328E0,1.1149646E0,-1.0656152E0,-3.7180975E-1,-8.553067E-1,-1.1783984E0,8.8703495E-1,-2.3649257E-1,-1.033801E0,-3.0615908E-1,1.2251016E0,-4.3765187E-1,7.0092165E-1,-5.788557E-1,4.8641142E-1,-1.0178691E0,-6.165874E-2,-5.525443E-1,1.164054E0,-1.5340599E0,-1.1274661E0,-6.039137E-1,3.3682033E-2,-9.1975254E-1,-9.7246164E-1,2.6268852E-1,-1.1949145E0,-5.666582E-1,1.0711622E0,-9.415045E-1,8.374021E-1,-4.63038E-1,-7.992188E-2,-1.1657702E0,-1.1966659E0,5.206655E-1,-2.662692E-1,3.676992E-1,-4.9621803E-1,2.551501E-1,2.9989228E-1,-4.4327185E-1,1.0849586E-1,-3.2097536E-1,-3.7261027E-1,3.4060943E-1,-8.397807E-2,-3.9343226E-1,3.5477346E-1,-5.48392E-1,5.724363E-2,-5.504596E-1,-3.5140288E-1,-2.2535823E-1,3.6528131E-3,-3.8712075E-1,4.074358E-1,-6.5652154E-2,-3.0923668E-1,9.728063E-2,-3.30248E-2,-3.3367902E-1,6.7441237E-1,-2.5960222E-1,-3.3769897E-1,-3.6947373E-1,4.716623E-1,-3.8392356E-1,3.3445936E-1,-8.224029E-1,2.2292389E-1,-3.690404E-1,-3.2697335E-1,3.66198E-1,1.3075677E-1,-2.6512656E-1,3.5600036E-1,-2.4452138E-1,-2.5486502E-1,-3.964102E-1,3.5163924E-2,-3.8937584E-1,3.2872236E-1,-2.885295E-1],"categories":[],"categories_nodes":[],"categories_segments":[],"categories_sizes":[],"default_left":[0,0,0,0,0,0,0,0,0,0,0,0,0,0,0,0,0,0,0,0,0,0,0,0,0,0,0,0,0,0,0,0,0,0,0,0,0,0,0,0,0,0,0,0,0,0,0,0,0,0,0,0,0,0,0,0,0,0,0,0,0,0,0,0,0,0,0,0,0,0,0,0,0,0,0,0,0,0,0,0,0,0,0,0,0,0,0,0,0,0,0,0,0,0,0,0,0,0,0,0,0,0,0],"id":3,"left_children":[1,3,5,7,9,11,13,-1,15,17,19,21,23,25,27,29,-1,31,33,35,37,39,41,43,45,47,49,51,53,55,57,59,61,63,65,-1,-1,67,69,71,73,75,77,79,81,83,85,87,89,91,93,95,97,99,101,-1,-1,-1,-1,-1,-1,-1,-1,-1,-1,-1,-1,-1,-1,-1,-1,-1,-1,-1,-1,-1,-1,-1,-1,-1,-1,-1,-1,-1,-1,-1,-1,-1,-1,-1,-1,-1,-1,-1,-1,-1,-1,-1,-1,-1,-1,-1,-1],"loss_changes":[1.8560947E4,6.953008E2,8.8461523E2,4.61416E1,5.0865112E2,2.9542383E2,3.7140445E2,0E0,1.5113281E1,9.355514E1,8.498993E1,2.617788E2,6.134375E1,2.5548276E2,1.162262E2,1.2853516E1,0E0,9.858831E1,6.651581E1,1.9664574E0,6.279663E1,3.0190552E1,2.4413466E2,8.824133E1,5.6246094E1,1.18169556E2,1.1813568E2,5.974829E1,3.0326385E2,9.733398E0,9.5467205E0,7.890029E1,5.666091E1,3.9900017E1,4.7351974E1,0E0,0E0,2.7723999E1,5.002947E0,1.4840332E1,5.494134E1,2.117902E2,6.488092E1,7.32099E1,1.464045E2,1.2541016E1,2.3081053E2,5.5809692E1,1.6651802E1,6.3872833E1,1.5177805E2,5.5762974E1,1.9420898E1,2.651944E1,1.833497E2,0E0,0E0,0E0,0E0,0E0,0E0,0E0,0E0,0E0,0E0,0E0,0E0,0E0,0E0,0E0,0E0,0E0,0E0,0E0,0E0,0E0,0E0,0E0,0E0,0E0,0E0,0E0,0E0,0E0,0E0,0E0,0E0,0E0,0E0,0E0,0E0,0E0,0E0,0E0,0E0,0E0,0E0,0E0,0E0,0E0,0E0,0E0,0E0],"parents":[2147483647,0,0,1,1,2,2,3,3,4,4,5,5,6,6,8,8,9,9,10,10,11,11,12,12,13,13,14,14,15,15,17,17,18,18,19,19,20,20,21,21,22,22,23,23,24,24,25,25,26,26,27,27,28,28,29,29,30,30,31,31,32,32,33,33,34,34,37,37,38,38,39,39,40,40,41,41,42,42,43,43,44,44,45,45,46,46,47,47,48,48,49,49,50,50,51,51,52,52,53,53,54,54],"right_children":[2,4,6,8,10,12,14,-1,16,18,20,22,24,26,28,30,-1,32,34,36,38,40,42,44,46,48,50,52,54,56,58,60,62,64,66,-1,-1,68,70,72,74,76,78,80,82,84,86,88,90,92,94,96,98,100,102,-1,-1,-1,-1,-1,-1,-1,-1,-1,-1,-1,-1,-1,-1,-1,-1,-1,-1,-1,-1,-1,-1,-1,-1,-1,-1,-1,-1,-1,-1,-1,-1,-1,-1,-1,-1,-1,-1,-1,-1,-1,-1,-1,-1,-1,-1,-1,-1],"split_conditions":[6.9311745E-2,3.4165576E-2,-6.993322E-2,-9.640062E-1,5.528569E-2,4.8103407E-1,4.2992926E-1,-3.351325E-1,2.1405056E0,4.6184638E-1,-8.2336587E-1,-6.360196E-1,-2.506799E-1,5.9480035E-1,-3.128075E-1,1.6069994E0,-3.186E-1,2.8100562E-1,-6.865808E-1,-1.57025E-1,8.3186364E-1,5.353255E-1,8.244364E-1,8.0217427E-1,7.0201147E-1,1.2621871E0,-3.249709E-1,-1.8366009E-2,1.11276574E-1,-1.2429106E0,1.078756E0,9.7848463E-1,4.176582E-1,-3.8558558E-1,8.0217427E-1,-6.165874E-2,-5.525443E-1,-4.8410393E-2,1.334079E-1,1.0652041E0,8.439232E-1,-5.815588E-1,2.1759865E-1,-1.2612977E0,-1.124975E0,7.1904784E-1,-1.0877055E0,1.9644406E0,5.655646E-1,-2.8488037E-1,-1.6026051E0,6.2254053E-1,7.3832315E-1,2.0666142E-1,9.446007E-1,-2.662692E-1,3.676992E-1,-4.9621803E-1,2.551501E-1,2.9989228E-1,-4.4327185E-1,1.0849586E-1,-3.2097536E-1,-3.7261027E-1,3.4060943E-1,-8.397807E-2,-3.9343226E-1,3.5477346E-1,-5.48392E-1,5.724363E-2,-5.504596E-1,-3.5140288E-1,-2.2535823E-1,3.6528131E-3,-3.8712075E-1,4.074358E-1,-6.5652154E-2,-3.0923668E-1,9.728063E-2,-3.30248E-2,-3.3367902E-1,6.7441237E-1,-2.5960222E-1,-3.3769897E-1,-3.6947373E-1,4.716623E-1,-3.8392356E-1,3.3445936E-1,-8.224029E-1,2.2292389E-1,-3.690404E-1,-3.2697335E-1,3.66198E-1,1.3075677E-1,-2.6512656E-1,3.5600036E-1,-2.4452138E-1,-2.5486502E-1,-3.964102E-1,3.5163924E-2,-3.8937584E-1,3.2872236E-1,-2.885295E-1],"split_indices":[13,11,3,3,3,13,11,0,9,4,21,3,7,13,1,0,0,9,21,22,12,18,11,16,22,2,7,6,0,10,8,15,8,3,16,0,0,7,11,14,2,19,10,12,23,13,12,17,9,19,18,11,11,13,0,0,0,0,0,0,0,0,0,0,0,0,0,0,0,0,0,0,0,0,0,0,0,0,0,0,0,0,0,0,0,0,0,0,0,0,0,0,0,0,0,0,0,0,0,0,0,0,0],"split_type":[0,0,0,0,0,0,0,0,0,0,0,0,0,0,0,0,0,0,0,0,0,0,0,0,0,0,0,0,0,0,0,0,0,0,0,0,0,0,0,0,0,0,0,0,0,0,0,0,0,0,0,0,0,0,0,0,0,0,0,0,0,0,0,0,0,0,0,0,0,0,0,0,0,0,0,0,0,0,0,0,0,0,0,0,0,0,0,0,0,0,0,0,0,0,0,0,0,0,0,0,0,0,0],"sum_hessian":[1.84548E4,8.258997E3,1.0195804E4,7.289303E3,9.696938E2,8.481421E3,1.7143827E3,7.706297E0,7.2815967E3,4.914037E2,4.7829013E2,2.1777031E3,6.303718E3,8.299753E2,8.844074E2,7.2794175E3,2.179568E0,2.388191E2,2.5258458E2,1.0116625E1,4.681735E2,1.0800588E3,1.0976442E3,6.7075757E2,5.63296E3,3.469854E2,4.8298987E2,4.743743E2,4.100331E2,7.2752227E3,4.194871E0,1.1797391E2,1.2084521E2,3.3314457E1,2.1927011E2,1.0840892E0,9.032536E0,4.6020593E2,7.9675655E0,9.511922E2,1.2886665E2,6.3136005E2,4.6628415E2,6.0725354E2,6.3504078E1,5.4839478E3,1.490124E2,3.1561804E2,3.1367376E1,8.367036E1,3.9931952E2,5.7848495E1,4.165258E2,1.9719876E2,2.1283435E2,1.5165195E0,7.273706E3,2.0114207E0,2.1834502E0,1.0422369E2,1.3750215E1,4.154312E1,7.9302086E1,8.844307E0,2.447015E1,6.296087E1,1.5630925E2,4.5797528E2,2.230649E0,1.2374533E0,6.730112E0,8.499656E2,1.0122661E2,6.843336E1,6.04333E1,1.00400185E2,5.3095984E2,4.2823322E2,3.8050957E1,8.495966E1,5.222938E2,2.2648827E1,4.085525E1,1.9093362E3,3.5746113E3,3.695702E1,1.1205538E2,3.127407E2,2.877336E0,4.3579245E0,2.7009453E1,1.3572691E1,7.009767E1,1.27299194E2,2.7202032E2,2.1019606E1,3.682889E1,1.3949333E2,2.7703247E2,1.4098405E1,1.8310036E2,1.535348E2,5.9299534E1],"tree_param":{"num_deleted":"0","num_feature":"29","num_nodes":"103","size_leaf_vector":"1"}},{"base_weights":[1.0333486E-3,1.0802679E0,-7.6539254E-1,1.1516377E0,3.9784172E-1,-9.882127E-1,-3.3409303E-1,-2.591852E-1,1.1531335E0,-2.3248512E-1,9.1667134E-1,-6.752128E-1,-1.0751352E0,2.1842928E-1,-6.696251E-1,5.3606063E-1,1.1563811E0,5.7011753E-1,-9.465801E-1,1.8564676E-1,1.0445975E0,-1.0655984E0,-3.824582E-1,-7.67771E-1,-1.1140906E0,7.61599E-1,-3.0119735E-1,-9.864615E-1,-3.5590512E-1,-1.4303211E0,9.795899E-1,4.7223133E-1,1.1567235E0,-9.8565036E-1,7.855674E-1,9.566481E-2,-1.1729659E0,7.5497043E-1,-1.4038497E0,1.0638874E0,-3.3987245E-1,-3.5354748E-1,-7.9021055E-1,-9.473079E-1,-1.3821255E-2,-8.5628676E-1,9.406533E-1,-1.1239704E0,-4.497536E-1,-1.0631347E0,9.251467E-1,6.777475E-1,-5.209763E-1,1.719984E-2,-1.1322635E0,3.4133535E-2,-9.9588394E-1,-4.7234893E-1,-1.10518165E-1,3.306568E-1,-2.551911E-1,2.5278032E-1,-1.1937455E-1,3.4716302E-1,2.2924615E-1,1.0461547E-1,-3.3101264E-1,2.7926853E-1,-4.1785994E-1,-3.0300948E-1,3.3520702E-1,-4.1000864E-1,-1.8742073E-1,-4.9140903E-1,3.161129E-1,2.2609396E-2,-4.6170548E-1,-5.5144172E-2,3.2476115E-1,-3.2603836E-1,3.8443945E-2,3.2557258E-1,-3.1278268E-1,-2.2934106E-1,1.3316932E-1,-3.5096407E-1,-1.1046382E-1,7.724189E-1,-3.4211692E-1,-2.907114E-1,-3.4673628E-1,-3.5563147E-1,4.202391E-1,-1.5223372E-1,-3.923098E-1,2.8857163E-1,-8.9830554E-1,2.5746927E-1,-4.8067182E-1,8.8990934E-2,-2.5826594E-1,-2.5834978E-1,1.7502554E-1,-2.1539548E-1,-3.49643E-1,1.1287814E-1,-3.0460888E-1,9.467066E-2,-3.3236822E-1],"categories":[],"categories_nodes":[],"categories_segments":[],"categories_sizes":[],"default_left":[0,0,0,0,0,0,0,0,0,0,0,0,0,0,0,0,0,0,0,0,0,0,0,0,0,0,0,0,0,0,0,0,0,0,0,0,0,0,0,0,0,0,0,0,0,0,0,0,0,0,0,0,0,0,0,0,0,0,0,0,0,0,0,0,0,0,0,0,0,0,0,0,0,0,0,0,0,0,0,0,0,0,0,0,0,0,0,0,0,0,0,0,0,0,0,0,0,0,0,0,0,0,0,0,0,0,0,0,0],"id":4,"left_children":[1,3,5,7,9,11,13,-1,15,17,19,21,23,25,27,29,31,33,35,37,39,41,43,45,47,49,51,53,55,57,59,61,63,65,67,69,71,73,75,77,-1,-1,79,81,83,85,87,89,91,93,95,97,99,101,103,105,107,-1,-1,-1,-1,-1,-1,-1,-1,-1,-1,-1,-1,-1,-1,-1,-1,-1,-1,-1,-1,-1,-1,-1,-1,-1,-1,-1,-1,-1,-1,-1,-1,-1,-1,-1,-1,-1,-1,-1,-1,-1,-1,-1,-1,-1,-1,-1,-1,-1,-1,-1,-1],"loss_changes":[1.2402885E4,3.028081E2,8.4229443E2,1.7990723E1,1.9351228E2,1.565498E2,5.541358E2,0E0,1.0668945E1,1.5394409E2,3.0144165E1,1.4349438E2,5.329541E1,3.1911072E2,1.8447473E2,2.874695E1,7.661133E-1,4.322401E1,3.3620544E1,4.588307E1,1.2793274E1,1.5826843E1,1.5013684E2,7.8221985E1,2.5825684E1,1.6591751E2,1.24738815E2,1.353169E2,2.3364667E2,3.6570168E-1,6.811388E0,1.7830287E0,1.850586E-1,2.8743668E0,3.668953E1,3.0801895E1,1.1545792E1,2.8262157E1,2.7976685E0,6.5742188E0,0E0,0E0,4.3652695E1,5.6288452E1,1.5060611E2,7.414523E1,9.031134E1,1.8362793E1,8.3962875E1,5.577797E0,7.6034E1,4.5171635E1,1.3162558E2,5.9318913E1,1.027124E1,2.0952045E2,5.2413513E1,0E0,0E0,0E0,0E0,0E0,0E0,0E0,0E0,0E0,0E0,0E0,0E0,0E0,0E0,0E0,0E0,0E0,0E0,0E0,0E0,0E0,0E0,0E0,0E0,0E0,0E0,0E0,0E0,0E0,0E0,0E0,0E0,0E0,0E0,0E0,0E0,0E0,0E0,0E0,0E0,0E0,0E0,0E0,0E0,0E0,0E0,0E0,0E0,0E0,0E0,0E0,0E0],"parents":[2147483647,0,0,1,1,2,2,3,3,4,4,5,5,6,6,8,8,9,9,10,10,11,11,12,12,13,13,14,14,15,15,16,16,17,17,18,18,19,19,20,20,21,21,22,22,23,23,24,24,25,25,26,26,27,27,28,28,29,29,30,30,31,31,32,32,33,33,34,34,35,35,36,36,37,37,38,38,39,39,42,42,43,43,44,44,45,45,46,46,47,47,48,48,49,49,50,50,51,51,52,52,53,53,54,54,55,55,56,56],"right_children":[2,4,6,8,10,12,14,-1,16,18,20,22,24,26,28,30,32,34,36,38,40,42,44,46,48,50,52,54,56,58,60,62,64,66,68,70,72,74,76,78,-1,-1,80,82,84,86,88,90,92,94,96,98,100,102,104,106,108,-1,-1,-1,-1,-1,-1,-1,-1,-1,-1,-1,-1,-1,-1,-1,-1,-1,-1,-1,-1,-1,-1,-1,-1,-1,-1,-1,-1,-1,-1,-1,-1,-1,-1,-1,-1,-1,-1,-1,-1,-1,-1,-1,-1,-1,-1,-1,-1,-1,-1,-1,-1],"split_conditions":[-5.399219E-2,-8.804354E-3,-3.1528515E-1,-9.1823107E-1,1.2269593E-1,4.1204408E-1,4.0453103E-1,-2.591852E-1,-4.3208265E-1,4.9791977E-1,-2.2510073E-1,-8.546295E-1,-2.506799E-1,6.46809E-1,2.4830633E-1,-6.195959E-1,-8.546295E-1,-7.2359556E-1,3.1716228E-1,7.0525664E-1,-6.486998E-3,-1.01515E0,-8.347409E-1,1.063417E0,1.2006559E0,-1.3852062E0,-2.868914E-1,-2.5849128E-1,7.839921E-1,-7.917759E-1,4.433622E-1,-4.9834684E-1,3.282746E-1,3.2641014E-1,2.9292621E-3,-1.3121165E-1,1.0877756E0,-1.7968119E0,-3.651182E-2,-7.2356266E-1,-3.3987245E-1,-3.5354748E-1,1.3637081E0,-1.0220066E0,-1.3792375E-1,-7.515872E-1,-1.4986674E0,-1.0313203E0,9.0513915E-1,4.7915933E-1,2.22813E0,8.6586815E-1,-1.4983568E0,-2.3596379E-1,-5.2093065E-1,2.2907515E-1,-1.8380811E0,-4.7234893E-1,-1.10518165E-1,3.306568E-1,-2.551911E-1,2.5278032E-1,-1.1937455E-1,3.4716302E-1,2.2924615E-1,1.0461547E-1,-3.3101264E-1,2.7926853E-1,-4.1785994E-1,-3.0300948E-1,3.3520702E-1,-4.1000864E-1,-1.8742073E-1,-4.9140903E-1,3.161129E-1,2.2609396E-2,-4.6170548E-1,-5.5144172E-2,3.2476115E-1,-3.2603836E-1,3.8443945E-2,3.2557258E-1,-3.1278268E-1,-2.2934106E-1,1.3316932E-1,-3.5096407E-1,-1.1046382E-1,7.724189E-1,-3.4211692E-1,-2.907114E-1,-3.4673628E-1,-3.5563147E-1,4.202391E-1,-1.5223372E-1,-3.923098E-1,2.8857163E-1,-8.9830554E-1,2.5746927E-1,-4.8067182E-1,8.8990934E-2,-2.5826594E-1,-2.5834978E-1,1.7502554E-1,-2.1539548E-1,-3.49643E-1,1.1287814E-1,-3.0460888E-1,9.467066E-2,-3.3236822E-1],"split_indices":[13,9,3,3,3,13,11,0,10,6,20,3,7,13,4,18,3,3,4,9,7,3,10,18,6,10,7,7,13,18,2,22,2,16,7,20,0,18,11,5,0,0,15,19,27,3,23,25,14,5,16,15,18,0,19,18,24,0,0,0,0,0,0,0,0,0,0,0,0,0,0,0,0,0,0,0,0,0,0,0,0,0,0,0,0,0,0,0,0,0,0,0,0,0,0,0,0,0,0,0,0,0,0,0,0,0,0,0,0],"split_type":[0,0,0,0,0,0,0,0,0,0,0,0,0,0,0,0,0,0,0,0,0,0,0,0,0,0,0,0,0,0,0,0,0,0,0,0,0,0,0,0,0,0,0,0,0,0,0,0,0,0,0,0,0,0,0,0,0,0,0,0,0,0,0,0,0,0,0,0,0,0,0,0,0,0,0,0,0,0,0,0,0,0,0,0,0,0,0,0,0,0,0,0,0,0,0,0,0,0,0,0,0,0,0,0,0,0,0,0,0],"sum_hessian":[1.4992662E4,6.2256577E3,8.767004E3,5.6355874E3,5.900707E2,5.7797485E3,2.9872554E3,3.7516572E0,5.6318354E3,2.6665866E2,3.2341205E2,1.2581255E3,4.521623E3,1.1288014E3,1.858454E3,3.0354576E1,5.601481E3,1.2564375E2,1.410149E2,4.8531803E1,2.7488025E2,5.3802893E2,7.200966E2,5.1093808E2,4.010685E3,5.516704E2,5.7713104E2,9.2356757E2,9.348864E2,5.1770997E0,2.5177477E1,3.492253E0,5.597989E3,1.4848387E1,1.10795364E2,2.5266996E1,1.157479E2,3.611957E1,1.2412233E1,2.7297348E2,1.9067714E0,3.7927036E2,1.5875858E2,2.8374863E2,4.36348E2,4.8624393E2,2.4694166E1,3.951232E3,5.945323E1,4.4925644E1,5.0674478E2,1.05431526E2,4.716995E2,1.1726047E2,8.0630707E2,5.814594E2,3.53427E2,4.1332593E0,1.0438408E0,2.3969635E1,1.207842E0,2.4718075E0,1.0204456E0,5.5891147E3,8.873918E0,1.0447221E0,1.3803665E1,1.0440311E2,6.392262E0,1.2140119E1,1.3126879E1,8.442241E1,3.1325487E1,3.5111272E0,3.2608444E1,1.0762913E0,1.1335942E1,3.8897073E0,2.6908377E2,1.1986478E2,3.8893803E1,1.2243147E1,2.7150546E2,1.6503087E2,2.713171E2,2.951863E2,1.9105762E2,1.36996765E1,1.0994489E1,6.7854443E2,3.2726875E3,4.2798244E1,1.6654987E1,1.4669389E1,3.0256254E1,5.0278403E2,3.960736E0,9.827563E1,7.1558995E0,1.3855339E2,3.3314612E2,4.5757183E1,7.150329E1,6.152317E1,7.4478394E2,4.3899292E2,1.4246648E2,2.7667631E1,3.2575937E2],"tree_param":{"num_deleted":"0","num_feature":"29","num_nodes":"109","size_leaf_vector":"1"}},{"base_weights":[7.2064344E-4,1.0259218E0,-6.7667574E-1,1.1018497E0,3.4073737E-1,-8.9980406E-1,-2.815201E-1,-2.3532814E-1,1.1029488E0,-2.7731165E-1,8.860184E-1,-6.2609726E-1,-1.0298312E0,1.9353542E-1,-5.575849E-1,1.1039954E0,-3.686995E-1,1.1562537E-1,-8.318462E-1,9.6519005E-1,-1.345945E0,-9.7441953E-1,-3.7595105E-1,-1.0416168E0,-2.7502038E-2,6.528734E-1,-2.2431837E-1,-3.617049E-1,-1.0439441E0,-2.364993E-1,1.1046891E0,-3.802388E-1,2.0009564E-1,3.959548E-1,-1.0327189E0,-3.7697634E-1,-1.4222184E0,-1.2149245E0,1.0283233E0,2.0749716E-1,-1.852753E0,-3.3418778E-1,-7.5961137E-1,-1.5448624E-1,-1.0794685E0,-1.074806E0,-7.0309484E-1,1.9161862E0,-3.3750987E-1,7.934579E-1,-9.831138E-1,-6.73416E-2,-1.3068514E0,-8.0256486E-1,-2.8226938E-2,-1.0859104E0,3.9267522E-1,3.3159658E-1,-2.1348026E-1,2.4117242E-1,-2.6221564E-1,-3.6161518E-1,2.4752912E-1,1.2743314E-1,-3.445642E-1,7.158871E-2,-4.427277E-1,-4.0602168E-1,-5.2659012E-2,3.1761712E-1,-3.143067E-1,-6.764393E-1,1.8657707E-2,1.4566423E-1,-2.5951228E-1,-2.3683009E-1,7.0649154E-2,-3.3708012E-1,2.7614477E-1,-3.252584E-1,-4.652849E-2,-3.4456548E-1,-5.9578314E-2,1.19533785E-1,9.418138E-1,2.6711172E-1,-2.1212515E-1,2.041468E-1,-3.812584E-1,6.824979E-2,-2.1910508E-1,-4.0957823E-1,-4.5626108E-2,-3.9691698E-2,-3.134464E-1,-1.273103E-1,1.6422224E-1,-3.3534884E-1,-6.4885463E-3,3.2085264E-1,-3.271798E-1],"categories":[],"categories_nodes":[],"categories_segments":[],"categories_sizes":[],"default_left":[0,0,0,0,0,0,0,0,0,0,0,0,0,0,0,0,0,0,0,0,0,0,0,0,0,0,0,0,0,0,0,0,0,0,0,0,0,0,0,0,0,0,0,0,0,0,0,0,0,0,0,0,0,0,0,0,0,0,0,0,0,0,0,0,0,0,0,0,0,0,0,0,0,0,0,0,0,0,0,0,0,0,0,0,0,0,0,0,0,0,0,0,0,0,0,0,0,0,0,0,0],"id":5,"left_children":[1,3,5,7,9,11,13,-1,15,17,19,21,23,25,27,29,31,33,35,37,39,41,43,45,47,49,51,53,55,-1,57,-1,-1,59,61,63,65,67,69,-1,71,-1,73,75,77,79,81,83,-1,85,87,89,91,93,95,97,99,-1,-1,-1,-1,-1,-1,-1,-1,-1,-1,-1,-1,-1,-1,-1,-1,-1,-1,-1,-1,-1,-1,-1,-1,-1,-1,-1,-1,-1,-1,-1,-1,-1,-1,-1,-1,-1,-1,-1,-1,-1,-1,-1,-1],"loss_changes":[8.416594E3,2.5047998E2,6.4318164E2,9.86377E0,1.6284398E2,1.6532837E2,3.4568378E2,0E0,7.0898438E0,4.9538845E1,4.6636154E1,1.3072382E2,3.7302002E1,1.8617477E2,1.5841766E2,6.5615234E0,4.413226E0,4.3443253E1,2.4767502E1,3.5432724E1,1.0788935E1,1.7984314E1,1.3651833E2,3.433545E1,8.2691475E1,1.0702547E2,8.628404E1,1.7489648E2,2.924707E1,0E0,5.7680664E0,0E0,0E0,5.6748276E1,9.497736E0,3.425231E1,3.966385E0,8.344927E-1,1.6376495E1,0E0,6.025799E0,0E0,3.3309113E1,1.6569653E2,1.9558395E1,2.4376709E1,6.3093704E1,2.472926E1,0E0,6.2572388E1,1.8577427E1,8.714728E1,4.1303635E0,8.305603E1,1.5493573E2,1.5763306E1,1.5525054E1,0E0,0E0,0E0,0E0,0E0,0E0,0E0,0E0,0E0,0E0,0E0,0E0,0E0,0E0,0E0,0E0,0E0,0E0,0E0,0E0,0E0,0E0,0E0,0E0,0E0,0E0,0E0,0E0,0E0,0E0,0E0,0E0,0E0,0E0,0E0,0E0,0E0,0E0,0E0,0E0,0E0,0E0,0E0,0E0],"parents":[2147483647,0,0,1,1,2,2,3,3,4,4,5,5,6,6,8,8,9,9,10,10,11,11,12,12,13,13,14,14,15,15,16,16,17,17,18,18,19,19,20,20,21,21,22,22,23,23,24,24,25,25,26,26,27,27,28,28,30,30,33,33,34,34,35,35,36,36,37,37,38,38,40,40,42,42,43,43,44,44,45,45,46,46,47,47,49,49,50,50,51,51,52,52,53,53,54,54,55,55,56,56],"right_children":[2,4,6,8,10,12,14,-1,16,18,20,22,24,26,28,30,32,34,36,38,40,42,44,46,48,50,52,54,56,-1,58,-1,-1,60,62,64,66,68,70,-1,72,-1,74,76,78,80,82,84,-1,86,88,90,92,94,96,98,100,-1,-1,-1,-1,-1,-1,-1,-1,-1,-1,-1,-1,-1,-1,-1,-1,-1,-1,-1,-1,-1,-1,-1,-1,-1,-1,-1,-1,-1,-1,-1,-1,-1,-1,-1,-1,-1,-1,-1,-1,-1,-1,-1,-1],"split_conditions":[-5.399219E-2,3.4165576E-2,-3.1528515E-1,-9.640062E-1,9.648927E-2,5.040341E-1,3.783371E-1,-2.3532814E-1,1.6069994E0,6.365846E-1,8.96207E-1,-8.546295E-1,1.6025702E0,6.46809E-1,-1.02253325E-1,-1.1551375E0,1.078756E0,1.6069994E0,8.212301E-1,-8.2336587E-1,-6.5562266E-1,-6.923728E-2,9.758605E-1,3.5443854E-1,-9.077291E-1,1.2621871E0,7.2221273E-1,-6.2672293E-1,9.2352027E-1,-2.364993E-1,1.7556558E0,-3.802388E-1,2.0009564E-1,-1.02253325E-1,2.4172685E0,2.1207215E-1,-5.968129E-1,-2.0838324E-2,9.261429E-1,2.0749716E-1,-1.1874008E-1,-3.3418778E-1,2.0113988E-1,-1.3792375E-1,6.362692E-1,1.5247341E0,-4.7466138E-1,2.0339029E-1,-3.3750987E-1,1.0303165E0,4.667621E-1,-1.3334294E-1,1.9100608E0,-3.1523994E-1,-3.2964686E-1,1.5811055E0,6.0534346E-1,3.3159658E-1,-2.1348026E-1,2.4117242E-1,-2.6221564E-1,-3.6161518E-1,2.4752912E-1,1.2743314E-1,-3.445642E-1,7.158871E-2,-4.427277E-1,-4.0602168E-1,-5.2659012E-2,3.1761712E-1,-3.143067E-1,-6.764393E-1,1.8657707E-2,1.4566423E-1,-2.5951228E-1,-2.3683009E-1,7.0649154E-2,-3.3708012E-1,2.7614477E-1,-3.252584E-1,-4.652849E-2,-3.4456548E-1,-5.9578314E-2,1.19533785E-1,9.418138E-1,2.6711172E-1,-2.1212515E-1,2.041468E-1,-3.812584E-1,6.824979E-2,-2.1910508E-1,-4.0957823E-1,-4.5626108E-2,-3.9691698E-2,-3.134464E-1,-1.273103E-1,1.6422224E-1,-3.3534884E-1,-6.4885463E-3,3.2085264E-1,-3.271798E-1],"split_indices":[13,11,3,3,3,13,11,0,0,6,6,3,21,13,7,10,8,0,15,21,12,18,2,19,19,2,24,25,3,0,9,0,0,7,15,9,13,8,9,0,13,0,9,27,26,6,10,20,0,0,9,7,14,23,10,25,11,0,0,0,0,0,0,0,0,0,0,0,0,0,0,0,0,0,0,0,0,0,0,0,0,0,0,0,0,0,0,0,0,0,0,0,0,0,0,0,0,0,0,0,0],"split_type":[0,0,0,0,0,0,0,0,0,0,0,0,0,0,0,0,0,0,0,0,0,0,0,0,0,0,0,0,0,0,0,0,0,0,0,0,0,0,0,0,0,0,0,0,0,0,0,0,0,0,0,0,0,0,0,0,0,0,0,0,0,0,0,0,0,0,0,0,0,0,0,0,0,0,0,0,0,0,0,0,0,0,0,0,0,0,0,0,0,0,0,0,0,0,0,0,0,0,0,0,0],"sum_hessian":[1.2117491E4,4.8208667E3,7.2966245E3,4.3393945E3,4.8147263E2,4.6625786E3,2.6340457E3,2.1119196E0,4.337282E3,2.2590825E2,2.5556438E2,1.5035092E3,3.1590696E3,9.6822003E2,1.6658257E3,4.334449E3,2.8329508E0,1.3268243E2,9.3225815E1,2.4735773E2,8.206653E0,6.2722235E2,8.762868E2,3.1223171E3,3.6752453E1,4.6094754E2,5.072725E2,1.188788E3,4.7703772E2,1.1722357E0,4.3332773E3,1.3969189E0,1.436032E0,1.07174576E2,2.5507854E1,5.3581158E1,3.9644653E1,6.4481106E0,2.4090962E2,1.5619922E0,6.64466E0,3.7768912E2,2.4953323E2,6.6740857E2,2.0887827E2,2.8415527E3,2.8076434E2,1.2994227E1,2.3758224E1,4.2494586E2,3.6001682E1,4.4395706E2,6.331545E1,5.1136005E2,6.774279E2,4.6373526E2,1.3302442E1,4.332159E3,1.11785E0,8.139559E1,2.5778992E1,2.3660076E1,1.8477794E0,2.6497053E1,2.7084105E1,1.1301461E0,3.8514507E1,5.423424E0,1.0246867E0,2.3791568E2,2.9939313E0,5.345E0,1.2996603E0,1.919759E1,2.3033565E2,2.5355743E2,4.138511E2,2.047973E2,4.080961E0,2.8126614E3,2.8891441E1,1.484295E2,1.3233484E2,6.3905554E0,6.603672E0,3.995472E2,2.5398634E1,5.1075654E0,3.0894117E1,3.0775488E2,1.3620218E2,6.0093563E1,3.2218847E0,1.3616733E2,3.7519272E2,4.0143246E2,2.7599545E2,4.501834E2,1.3551853E1,9.325894E0,3.9765477E0],"tree_param":{"num_deleted":"0","num_feature":"29","num_nodes":"101","size_leaf_vector":"1"}},{"base_weights":[8.2678226E-4,1.0248734E0,-5.704829E-1,1.0709023E0,4.4186512E-1,-8.1305563E-1,-1.9501287E-1,2.443845E-1,1.0736294E0,6.4325744E-1,-9.453724E-1,-5.3303945E-1,-9.7357756E-1,-1.7832248E-2,-7.74177E-1,8.858545E-1,-3.6591962E-1,1.5655687E-1,1.0744392E0,8.0326134E-1,-5.6705743E-1,-1.403331E0,7.974606E-1,-9.566845E-1,-3.265085E-1,-6.215607E-1,-1.0258818E0,3.1287956E-1,-5.4193896E-1,-4.3511915E-1,-3.381666E-1,2.8802565E-1,4.8967596E-2,2.2402182E-1,-2.446469E-1,3.2257345E-1,5.70716E-1,9.048919E-1,-1.0174339E0,-1.2116346E0,5.9022963E-1,-9.876078E-2,-4.2975333E-1,-1.055106E-2,2.7922016E-1,-1.0735893E0,-6.540176E-1,-1.6433665E-1,-1.1086248E0,-1.0765866E0,5.3047043E-1,-1.0422837E0,-2.2644036E-1,4.7583497E-1,-8.7717664E-1,-1.320821E-1,-1.0563008E0,-9.505528E-1,6.583902E-2,2.7893272E-1,-2.5429976E-1,2.8297183E-1,-2.844516E-1,-3.287061E-1,-5.8524456E-2,1.7109147E-1,-4.3326625E-1,2.6372194E-1,-2.4471082E-1,-1.11814655E-1,-3.2350546E-1,3.7691683E-1,-2.5766337E-1,1.8107973E-1,-1.5412237E-1,-1.760166E-1,-3.6585453E-1,-3.266685E-1,-1.8424664E-1,-3.0378318E-1,5.565444E-1,-1.7300573E-1,-3.1704092E-1,1.5611275E-1,-3.4968996E-1,1.7813326E-1,-4.450707E-1,-3.3956292E-1,4.2078674E-2,3.4030414E-1,-1.498519E-1,-2.3921467E-1,-3.3277282E-1,-3.273013E-1,2.8743671E-2,-2.1390826E-1,2.0669924E-1],"categories":[],"categories_nodes":[],"categories_segments":[],"categories_sizes":[],"default_left":[0,0,0,0,0,0,0,0,0,0,0,0,0,0,0,0,0,0,0,0,0,0,0,0,0,0,0,0,0,0,0,0,0,0,0,0,0,0,0,0,0,0,0,0,0,0,0,0,0,0,0,0,0,0,0,0,0,0,0,0,0,0,0,0,0,0,0,0,0,0,0,0,0,0,0,0,0,0,0,0,0,0,0,0,0,0,0,0,0,0,0,0,0,0,0,0,0],"id":6,"left_children":[1,3,5,7,9,11,13,15,17,19,21,23,25,27,29,31,-1,33,35,37,39,41,43,45,47,49,51,53,55,57,-1,-1,-1,-1,-1,-1,59,61,63,65,67,-1,-1,-1,-1,69,71,73,75,77,79,81,83,85,87,89,91,93,95,-1,-1,-1,-1,-1,-1,-1,-1,-1,-1,-1,-1,-1,-1,-1,-1,-1,-1,-1,-1,-1,-1,-1,-1,-1,-1,-1,-1,-1,-1,-1,-1,-1,-1,-1,-1,-1,-1],"loss_changes":[5.761579E3,9.416553E1,5.755857E2,7.1032715E0,7.317986E1,1.7208472E2,2.5471841E2,1.2389525E1,2.2504883E0,4.4497696E1,2.7725355E1,1.2230649E2,4.4279785E1,3.2981802E2,6.9115814E1,3.2349777E-1,0E0,2.9289567E0,7.067871E-1,3.8166E1,2.0961521E1,3.671837E-1,8.7323284E-1,1.5530914E1,1.19507324E2,1.6733646E2,2.7594482E1,2.2667322E2,1.5505428E2,7.707422E1,0E0,0E0,0E0,0E0,0E0,0E0,4.519514E0,1.4479141E1,5.013485E-1,8.184227E0,4.932993E0,0E0,0E0,0E0,0E0,6.9744873E-1,5.2108456E1,2.103401E2,8.653534E0,6.3116455E-1,1.8737143E2,1.344873E1,3.1431814E1,2.3818121E2,3.6663803E1,1.9173932E2,3.588562E0,2.1717972E1,7.435521E1,0E0,0E0,0E0,0E0,0E0,0E0,0E0,0E0,0E0,0E0,0E0,0E0,0E0,0E0,0E0,0E0,0E0,0E0,0E0,0E0,0E0,0E0,0E0,0E0,0E0,0E0,0E0,0E0,0E0,0E0,0E0,0E0,0E0,0E0,0E0,0E0,0E0,0E0],"parents":[2147483647,0,0,1,1,2,2,3,3,4,4,5,5,6,6,7,7,8,8,9,9,10,10,11,11,12,12,13,13,14,14,15,15,17,17,18,18,19,19,20,20,21,21,22,22,23,23,24,24,25,25,26,26,27,27,28,28,29,29,36,36,37,37,38,38,39,39,40,40,45,45,46,46,47,47,48,48,49,49,50,50,51,51,52,52,53,53,54,54,55,55,56,56,57,57,58,58],"right_children":[2,4,6,8,10,12,14,16,18,20,22,24,26,28,30,32,-1,34,36,38,40,42,44,46,48,50,52,54,56,58,-1,-1,-1,-1,-1,-1,60,62,64,66,68,-1,-1,-1,-1,70,72,74,76,78,80,82,84,86,88,90,92,94,96,-1,-1,-1,-1,-1,-1,-1,-1,-1,-1,-1,-1,-1,-1,-1,-1,-1,-1,-1,-1,-1,-1,-1,-1,-1,-1,-1,-1,-1,-1,-1,-1,-1,-1,-1,-1,-1,-1],"split_conditions":[-1.8518162E-1,-8.804354E-3,-3.1528515E-1,-4.418755E-1,1.1853573E0,5.110215E-1,1.0702541E0,9.301989E-1,-8.546295E-1,8.6499786E-1,-1.5078326E-2,-9.290501E-1,-1.2001783E0,7.7687365E-1,-1.3334294E-1,3.1635177E-1,-3.6591962E-1,-4.1562498E-1,3.282746E-1,7.2840184E-1,7.506901E-1,-3.1990802E-1,-6.294334E-1,5.8955693E-1,-1.2769644E-1,1.1780898E-2,1.5247341E0,1.3490833E0,5.879297E-1,-5.3113747E-1,-3.381666E-1,2.8802565E-1,4.8967596E-2,2.2402182E-1,-2.446469E-1,3.2257345E-1,-1.683398E-1,1.3542242E0,1.8204418E0,-2.0411712E-1,3.3664797E-2,-9.876078E-2,-4.2975333E-1,-1.055106E-2,2.7922016E-1,-7.156929E-2,-9.8468214E-1,4.31965E-1,-7.2408825E-1,7.367736E-1,-7.2359556E-1,-3.9831835E-1,-2.3970217E-1,1.0752859E0,7.60559E-1,2.354195E-1,-1.6797979E-1,4.909538E-1,5.0034654E-1,2.7893272E-1,-2.5429976E-1,2.8297183E-1,-2.844516E-1,-3.287061E-1,-5.8524456E-2,1.7109147E-1,-4.3326625E-1,2.6372194E-1,-2.4471082E-1,-1.11814655E-1,-3.2350546E-1,3.7691683E-1,-2.5766337E-1,1.8107973E-1,-1.5412237E-1,-1.760166E-1,-3.6585453E-1,-3.266685E-1,-1.8424664E-1,-3.0378318E-1,5.565444E-1,-1.7300573E-1,-3.1704092E-1,1.5611275E-1,-3.4968996E-1,1.7813326E-1,-4.450707E-1,-3.3956292E-1,4.2078674E-2,3.4030414E-1,-1.498519E-1,-2.3921467E-1,-3.3277282E-1,-3.273013E-1,2.8743671E-2,-2.1390826E-1,2.0669924E-1],"split_indices":[13,9,3,10,14,13,2,16,3,6,20,3,12,13,7,27,0,0,2,11,3,15,23,21,1,20,6,0,11,10,0,0,0,0,0,0,0,24,15,16,14,0,0,0,0,9,25,8,12,22,3,20,23,24,4,6,20,19,15,0,0,0,0,0,0,0,0,0,0,0,0,0,0,0,0,0,0,0,0,0,0,0,0,0,0,0,0,0,0,0,0,0,0,0,0,0,0],"split_type":[0,0,0,0,0,0,0,0,0,0,0,0,0,0,0,0,0,0,0,0,0,0,0,0,0,0,0,0,0,0,0,0,0,0,0,0,0,0,0,0,0,0,0,0,0,0,0,0,0,0,0,0,0,0,0,0,0,0,0,0,0,0,0,0,0,0,0,0,0,0,0,0,0,0,0,0,0,0,0,0,0,0,0,0,0,0,0,0,0,0,0,0,0,0,0,0,0],"sum_hessian":[9.84605E3,3.5256636E3,6.3203857E3,3.2669026E3,2.58761E2,3.839019E3,2.481367E3,1.1041289E1,3.2558613E3,2.264259E2,3.233509E1,1.4004247E3,2.4385945E3,1.9008735E3,5.8049335E2,7.9521766E0,3.0891128E0,3.0440302E0,3.2528174E3,2.0028456E2,2.6141342E1,2.5760805E1,6.574285E0,4.5777832E2,9.4264636E2,3.1713068E2,2.1214639E3,1.1657115E3,7.3516205E2,2.972512E2,2.8324216E2,6.9134073E0,1.0387694E0,2.038271E0,1.0057592E0,3.2464907E3,6.3267117E0,1.9017221E2,1.0112351E1,1.6759691E1,9.381651E0,1.0061431E0,2.4754662E1,1.0086708E0,5.565614E0,3.283906E2,1.2938771E2,7.817587E2,1.6088759E2,2.273845E2,8.9746185E1,2.0785159E3,4.29479E1,1.0258422E3,1.3986928E2,4.0984427E2,3.2531775E2,1.4606653E2,1.5118468E2,5.32355E0,1.0031615E0,1.8679758E2,3.3746228E0,8.930196E0,1.1821562E0,1.7673408E0,1.4992351E1,8.093593E0,1.2880583E0,2.7511418E0,3.2563947E2,1.2033876E1,1.1735383E2,2.4423701E2,5.375217E2,2.9296267E1,1.3159132E2,2.2016962E2,7.2148876E0,4.1564457E1,4.818173E1,6.408831E1,2.0144275E3,2.4172573E1,1.8775324E1,9.6825684E2,5.75854E1,1.1177557E2,2.8093714E1,9.1697205E1,3.1814706E2,5.7953106E1,2.6736465E2,1.2874295E2,1.7323565E1,6.7132996E1,8.405168E1],"tree_param":{"num_deleted":"0","num_feature":"29","num_nodes":"97","size_leaf_vector":"1"}},{"base_weights":[-1.6126412E-3,1.005281E0,-4.9326292E-1,1.0472897E0,4.4280577E-1,-7.75867E-1,-2.053808E-1,6.633561E-1,1.0515244E0,6.323172E-1,-8.802619E-1,-4.834715E-1,-9.5645016E-1,1.1759334E-1,-4.6702626E-1,3.041776E-1,-7.625743E-1,2.5964457E-1,3.1564942E-1,8.1826717E-1,-3.0103645E-1,7.054388E-1,-3.9870903E-1,-9.273243E-1,-2.2633116E-1,-6.351362E-1,-1.0101988E0,-2.4466553E-1,5.3197443E-1,-7.7655685E-1,-1.9866583E-1,2.336023E-1,-2.1084807E0,1.839365E-1,-7.9999425E-2,9.429183E-1,-2.6403192E-1,6.937679E-1,-1.0856719E0,-2.8096933E-3,2.5713408E-1,-9.841339E-1,2.7981418E-1,4.4797066E-1,-7.5541484E-1,-8.6590755E-1,1.8102895E-1,-1.0265241E0,-3.0407557E-1,-7.34833E-2,-9.5089734E-1,7.6553464E-1,-7.0146275E-1,6.314635E-1,-8.754534E-1,-8.170769E-1,1.0181971E-1,-2.161714E-1,-7.528892E-1,2.9229513E-1,-3.976547E-1,-2.7248675E-1,1.8401769E-1,3.0347073E-1,-2.675994E-1,1.1338916E-1,-3.6315992E-1,3.7664208E-1,-3.0051368E-1,-3.291349E-1,4.1347829E-1,-2.9452994E-1,2.755762E-1,1.1266107E-1,-2.7388284E-1,-3.0125147E-1,-1.05612725E-1,-1.8411452E-1,5.3923076E-1,-2.636609E-1,-3.173992E-1,-3.245963E-1,2.5135338E-1,1.3680702E-1,-1.0612818E-1,2.572365E-1,-3.457984E-1,2.7225763E-1,-4.690121E-1,1.7941949E-1,-3.4870878E-1,-1.6438445E-1,5.643082E-1,-2.9749183E-2,-3.0099714E-1,-2.9250103E-1,1.1163222E-1,1.3879053E-1,-1.630104E-1],"categories":[],"categories_nodes":[],"categories_segments":[],"categories_sizes":[],"default_left":[0,0,0,0,0,0,0,0,0,0,0,0,0,0,0,0,0,0,0,0,0,0,0,0,0,0,0,0,0,0,0,0,0,0,0,0,0,0,0,0,0,0,0,0,0,0,0,0,0,0,0,0,0,0,0,0,0,0,0,0,0,0,0,0,0,0,0,0,0,0,0,0,0,0,0,0,0,0,0,0,0,0,0,0,0,0,0,0,0,0,0,0,0,0,0,0,0,0,0],"id":7,"left_children":[1,3,5,7,9,11,13,15,17,19,21,23,25,27,29,-1,31,33,-1,35,37,39,-1,41,43,45,47,49,51,53,55,-1,57,-1,-1,59,61,63,65,-1,-1,67,69,71,73,75,77,79,81,83,85,87,89,91,93,95,97,-1,-1,-1,-1,-1,-1,-1,-1,-1,-1,-1,-1,-1,-1,-1,-1,-1,-1,-1,-1,-1,-1,-1,-1,-1,-1,-1,-1,-1,-1,-1,-1,-1,-1,-1,-1,-1,-1,-1,-1,-1,-1],"loss_changes":[3.9872217E3,6.1976074E1,4.4012952E2,3.2988281E0,4.7036797E1,1.4371753E2,2.2671707E2,1.5532859E1,9.589844E-1,2.8489464E1,1.776268E1,1.1900847E2,2.8493774E1,1.804509E2,1.2295001E2,0E0,1.4912258E1,7.7566123E-1,0E0,1.8592033E1,2.2425865E1,6.4429235E-1,0E0,2.6529846E1,2.3677014E2,4.6199196E1,1.6328735E1,7.7497086E1,1.6204205E2,9.633777E1,1.4783894E2,0E0,2.4316788E-1,0E0,0E0,9.99118E0,8.93664E0,7.3798E0,3.3655376E0,0E0,0E0,1.5661072E1,2.871581E1,1.9737572E2,6.656653E1,1.3198639E1,7.1386635E1,5.625122E0,3.11461E1,7.6965225E1,4.662999E1,1.5744977E2,5.4468086E1,6.8417725E1,6.3742065E1,4.9215607E1,1.2503178E2,0E0,0E0,0E0,0E0,0E0,0E0,0E0,0E0,0E0,0E0,0E0,0E0,0E0,0E0,0E0,0E0,0E0,0E0,0E0,0E0,0E0,0E0,0E0,0E0,0E0,0E0,0E0,0E0,0E0,0E0,0E0,0E0,0E0,0E0,0E0,0E0,0E0,0E0,0E0,0E0,0E0,0E0],"parents":[2147483647,0,0,1,1,2,2,3,3,4,4,5,5,6,6,7,7,8,8,9,9,10,10,11,11,12,12,13,13,14,14,16,16,17,17,19,19,20,20,21,21,23,23,24,24,25,25,26,26,27,27,28,28,29,29,30,30,32,32,35,35,36,36,37,37,38,38,41,41,42,42,43,43,44,44,45,45,46,46,47,47,48,48,49,49,50,50,51,51,52,52,53,53,54,54,55,55,56,56],"right_children":[2,4,6,8,10,12,14,16,18,20,22,24,26,28,30,-1,32,34,-1,36,38,40,-1,42,44,46,48,50,52,54,56,-1,58,-1,-1,60,62,64,66,-1,-1,68,70,72,74,76,78,80,82,84,86,88,90,92,94,96,98,-1,-1,-1,-1,-1,-1,-1,-1,-1,-1,-1,-1,-1,-1,-1,-1,-1,-1,-1,-1,-1,-1,-1,-1,-1,-1,-1,-1,-1,-1,-1,-1,-1,-1,-1,-1,-1,-1,-1,-1,-1,-1],"split_conditions":[-2.2518212E-1,-8.804354E-3,-4.1600314E-1,-2.45188E-1,1.1853573E0,5.110215E-1,4.8712045E-1,6.365846E-1,-8.546295E-1,4.462291E-1,-1.3812858E-1,-1.3792375E-1,-2.4721794E-1,-4.638628E-1,2.4298668E-1,3.041776E-1,3.6658335E-1,-1.9800549E0,3.1564942E-1,9.1431504E-1,-6.59081E-1,-6.234109E-1,-3.9870903E-1,1.5247341E0,-3.2163009E-3,9.821654E-1,1.2006559E0,-1.181608E-1,1.5989865E0,2.0113988E-1,3.6658335E-1,2.336023E-1,-4.5272797E-1,1.839365E-1,-7.9999425E-2,1.2918521E0,2.3200287E-1,1.6614887E-1,-5.7296926E-1,-2.8096933E-3,2.5713408E-1,-1.3206646E-1,-1.201861E-1,-7.168985E-1,-2.7318388E-1,2.6337767E-1,1.8282843E-1,-1.0690473E0,1.8382251E-1,-3.5565582E-1,5.415146E-2,1.4887578E0,-5.115142E-1,-1.683398E-1,-2.32925E-1,1.130412E-1,8.212301E-1,-2.161714E-1,-7.528892E-1,2.9229513E-1,-3.976547E-1,-2.7248675E-1,1.8401769E-1,3.0347073E-1,-2.675994E-1,1.1338916E-1,-3.6315992E-1,3.7664208E-1,-3.0051368E-1,-3.291349E-1,4.1347829E-1,-2.9452994E-1,2.755762E-1,1.1266107E-1,-2.7388284E-1,-3.0125147E-1,-1.05612725E-1,-1.8411452E-1,5.3923076E-1,-2.636609E-1,-3.173992E-1,-3.245963E-1,2.5135338E-1,1.3680702E-1,-1.0612818E-1,2.572365E-1,-3.457984E-1,2.7225763E-1,-4.690121E-1,1.7941949E-1,-3.4870878E-1,-1.6438445E-1,5.643082E-1,-2.9749183E-2,-3.0099714E-1,-2.9250103E-1,1.1163222E-1,1.3879053E-1,-1.630104E-1],"split_indices":[13,9,3,10,14,13,11,6,3,11,11,27,7,10,4,0,15,25,0,6,14,12,0,6,27,21,6,7,13,9,15,0,10,0,0,12,25,2,13,0,0,9,0,1,20,18,20,25,18,23,16,17,19,0,20,20,15,0,0,0,0,0,0,0,0,0,0,0,0,0,0,0,0,0,0,0,0,0,0,0,0,0,0,0,0,0,0,0,0,0,0,0,0,0,0,0,0,0,0],"split_type":[0,0,0,0,0,0,0,0,0,0,0,0,0,0,0,0,0,0,0,0,0,0,0,0,0,0,0,0,0,0,0,0,0,0,0,0,0,0,0,0,0,0,0,0,0,0,0,0,0,0,0,0,0,0,0,0,0,0,0,0,0,0,0,0,0,0,0,0,0,0,0,0,0,0,0,0,0,0,0,0,0,0,0,0,0,0,0,0,0,0,0,0,0,0,0,0,0,0,0],"sum_hessian":[8.0523496E3,2.6415151E3,5.4108345E3,2.4571404E3,1.8437473E2,2.7295918E3,2.6812424E3,2.8525986E1,2.4286145E3,1.6173105E2,2.2643686E1,1.0435616E3,1.6860302E3,1.2002317E3,1.4810107E3,2.312867E1,5.3973145E0,2.290523E0,2.426324E3,1.3496547E2,2.676557E1,4.8686385E0,1.7775047E1,3.818463E2,6.617154E2,2.4345471E2,1.4425754E3,6.4060956E2,5.596221E2,6.8687085E2,7.9413995E2,2.712536E0,2.6847785E0,1.2715713E0,1.0189518E0,1.2114202E2,1.3823452E1,1.1853215E1,1.4912354E1,1.0164801E0,3.8521585E0,3.6486023E2,1.6986095E1,2.9099896E2,3.707164E2,1.897436E2,5.3711113E1,1.4095339E3,3.3041542E1,5.1651624E2,1.24093376E2,4.7084375E2,8.877831E1,4.472485E1,6.42146E2,2.5912704E2,5.350129E2,1.2289811E0,1.4557973E0,1.2005081E2,1.0912095E0,7.9505253E0,5.8729267E0,1.017596E1,1.6772555E0,1.0128254E0,1.38995285E1,2.2930076E0,3.625672E2,7.5381045E0,9.447991E0,7.179601E1,2.1920294E2,4.5154118E1,3.255623E2,1.4876244E2,4.0981163E1,3.6423145E1,1.7287966E1,2.5274124E2,1.1567927E3,1.9684395E1,1.3357147E1,1.7855627E2,3.3795993E2,1.2129591E1,1.1196378E2,4.4436185E2,2.6481897E1,2.316525E1,6.561306E1,2.3297134E1,2.1427713E1,9.106628E1,5.510797E2,2.2890768E2,3.0219364E1,3.433054E2,1.9170749E2],"tree_param":{"num_deleted":"0","num_feature":"29","num_nodes":"99","size_leaf_vector":"1"}},{"base_weights":[-2.8317121E-3,9.812568E-1,-4.243906E-1,1.029158E0,4.1166317E-1,-9.264991E-1,-2.694554E-1,1.0302784E0,-1.5319797E-1,7.543709E-1,-6.085346E-1,-9.640909E-1,-3.8541526E-1,-1.6641137E-1,-9.25647E-1,1.0315273E0,-8.024984E-2,9.1068953E-1,-6.9700074E-1,-1.1071988E0,7.575125E-1,-1.0214386E0,-6.726786E-1,-9.923621E-1,5.049722E-1,3.5151035E-2,-7.194375E-1,-2.3436402E-1,-1.0727971E0,2.3688017E-1,1.0329477E0,-2.3091811E-1,9.3759876E-1,5.629451E-1,-1.3082602E0,-1.2571244E0,2.0792955E-1,9.7825605E-1,-2.0431489E-1,-7.3901135E-1,-3.1531143E-1,-3.1488824E-1,4.9212083E-2,-3.1641445E-1,-3.44791E-1,-2.9949006E-1,1.4777778E0,2.4690662E-1,-4.9884564E-1,-4.8644412E-1,-1.0066941E0,2.3210075E-1,-3.4951434E-1,-7.981677E-1,-1.1043898E0,2.2726336E-1,-2.4082673E-1,3.104878E-1,2.0603597E-1,2.8954256E-1,-2.1554595E-1,-3.350857E-2,2.3499821E-1,-2.701561E-1,-6.322042E-1,1.395509E-1,-4.0731993E-1,-7.0656617E-3,3.270356E-1,-3.0277413E-1,7.402771E-2,-3.090544E-1,2.8108054E-1,-2.5010434E-1,2.394257E-1,6.121115E-1,-2.3801307E-1,1.0632781E-1,-2.856224E-1,-2.2256793E-1,1.178691E-1,-2.4488734E-1,-7.3304824E-3,-3.1549042E-1,2.2317475E-1,-3.903199E-1,1.778818E-1,1.4132737E-1,-2.9099488E-1,-3.9378606E-2,-3.3318144E-1],"categories":[],"categories_nodes":[],"categories_segments":[],"categories_sizes":[],"default_left":[0,0,0,0,0,0,0,0,0,0,0,0,0,0,0,0,0,0,0,0,0,0,0,0,0,0,0,0,0,0,0,0,0,0,0,0,0,0,0,0,0,0,0,0,0,0,0,0,0,0,0,0,0,0,0,0,0,0,0,0,0,0,0,0,0,0,0,0,0,0,0,0,0,0,0,0,0,0,0,0,0,0,0,0,0,0,0,0,0,0,0],"id":8,"left_children":[1,3,5,7,9,11,13,15,-1,17,19,21,23,25,27,29,-1,31,33,35,37,39,41,43,45,47,49,51,53,55,57,-1,59,61,63,65,-1,67,-1,69,-1,-1,71,-1,73,-1,75,77,79,81,83,85,-1,87,89,-1,-1,-1,-1,-1,-1,-1,-1,-1,-1,-1,-1,-1,-1,-1,-1,-1,-1,-1,-1,-1,-1,-1,-1,-1,-1,-1,-1,-1,-1,-1,-1,-1,-1,-1,-1],"loss_changes":[2.7657424E3,5.4128662E1,3.6284888E2,3.7070312E0,5.5269733E1,2.2006714E1,2.4111703E2,3.262085E0,0E0,2.735952E1,2.8068516E1,1.6493713E1,4.0025497E1,3.439256E2,4.8988464E1,1.833374E0,0E0,5.5499115E0,9.993593E0,8.884922E0,4.2493553E0,6.3881226E0,4.6849068E1,1.4060211E0,4.5798653E1,2.559048E2,5.4669067E1,3.770787E1,2.578888E0,3.0886507E0,5.687256E-1,0E0,5.507622E0,7.752259E-1,8.37286E-1,5.442253E0,0E0,1.1679373E0,0E0,2.2805119E1,0E0,0E0,5.840978E1,0E0,3.646278E0,0E0,2.5645649E1,2.0922784E2,1.3957204E2,6.962109E1,2.9746368E1,3.3012295E1,0E0,1.0216648E1,2.001648E0,0E0,0E0,0E0,0E0,0E0,0E0,0E0,0E0,0E0,0E0,0E0,0E0,0E0,0E0,0E0,0E0,0E0,0E0,0E0,0E0,0E0,0E0,0E0,0E0,0E0,0E0,0E0,0E0,0E0,0E0,0E0,0E0,0E0,0E0,0E0,0E0],"parents":[2147483647,0,0,1,1,2,2,3,3,4,4,5,5,6,6,7,7,9,9,10,10,11,11,12,12,13,13,14,14,15,15,17,17,18,18,19,19,20,20,21,21,22,22,23,23,24,24,25,25,26,26,27,27,28,28,29,29,30,30,32,32,33,33,34,34,35,35,37,37,39,39,42,42,44,44,46,46,47,47,48,48,49,49,50,50,51,51,53,53,54,54],"right_children":[2,4,6,8,10,12,14,16,-1,18,20,22,24,26,28,30,-1,32,34,36,38,40,42,44,46,48,50,52,54,56,58,-1,60,62,64,66,-1,68,-1,70,-1,-1,72,-1,74,-1,76,78,80,82,84,86,-1,88,90,-1,-1,-1,-1,-1,-1,-1,-1,-1,-1,-1,-1,-1,-1,-1,-1,-1,-1,-1,-1,-1,-1,-1,-1,-1,-1,-1,-1,-1,-1,-1,-1,-1,-1,-1,-1],"split_conditions":[-2.2518212E-1,-1.5560001E-2,-8.4027845E-1,1.14196E0,6.626248E-1,8.655627E-1,1.5657326E0,1.6069994E0,-1.5319797E-1,-1.02253325E-1,1.0877756E0,8.750446E-1,6.094316E-1,9.758605E-1,1.7381218E-1,-4.418755E-1,-8.024984E-2,-8.866414E-1,7.036251E-1,2.6879492E0,-2.7514833E-1,2.517127E-1,4.515225E-1,1.3001738E0,2.0248933E-1,8.573277E-1,-1.3214038E-1,5.0479513E-1,-1.2715412E0,5.9606236E-1,3.413251E0,-2.3091811E-1,2.7382827E0,-6.812494E-2,-1.1133556E-1,-2.0478833E-1,2.0792955E-1,-2.3264664E-1,-2.0431489E-1,-9.1823107E-1,-3.1531143E-1,-3.1488824E-1,2.2322966E-1,-3.1641445E-1,1.2279105E0,-2.9949006E-1,4.318606E-1,-4.595706E-2,3.3024368E-1,2.4720334E-1,8.795416E-1,-7.3373723E-1,-3.4951434E-1,-1.67801E0,2.7427205E-1,2.2726336E-1,-2.4082673E-1,3.104878E-1,2.0603597E-1,2.8954256E-1,-2.1554595E-1,-3.350857E-2,2.3499821E-1,-2.701561E-1,-6.322042E-1,1.395509E-1,-4.0731993E-1,-7.0656617E-3,3.270356E-1,-3.0277413E-1,7.402771E-2,-3.090544E-1,2.8108054E-1,-2.5010434E-1,2.394257E-1,6.121115E-1,-2.3801307E-1,1.0632781E-1,-2.856224E-1,-2.2256793E-1,1.178691E-1,-2.4488734E-1,-7.3304824E-3,-3.1549042E-1,2.2317475E-1,-3.903199E-1,1.778818E-1,1.4132737E-1,-2.9099488E-1,-3.9378606E-2,-3.3318144E-1],"split_indices":[13,11,3,9,6,16,0,0,0,7,0,14,21,2,13,10,0,26,16,16,19,13,6,23,17,13,7,25,14,4,17,0,15,20,20,9,0,7,0,3,0,0,24,0,0,0,17,7,3,21,6,25,0,18,9,0,0,0,0,0,0,0,0,0,0,0,0,0,0,0,0,0,0,0,0,0,0,0,0,0,0,0,0,0,0,0,0,0,0,0,0],"split_type":[0,0,0,0,0,0,0,0,0,0,0,0,0,0,0,0,0,0,0,0,0,0,0,0,0,0,0,0,0,0,0,0,0,0,0,0,0,0,0,0,0,0,0,0,0,0,0,0,0,0,0,0,0,0,0,0,0,0,0,0,0,0,0,0,0,0,0,0,0,0,0,0,0,0,0,0,0,0,0,0,0,0,0,0,0,0,0,0,0,0,0],"sum_hessian":[6.6648257E3,1.998408E3,4.6664175E3,1.8426401E3,1.557678E2,1.0991975E3,3.5672202E3,1.841631E3,1.0091478E0,1.1679445E2,3.897336E1,1.0270608E3,7.21367E1,3.0841577E3,4.8306232E2,1.8400656E3,1.5654298E0,1.0577463E2,1.1019824E1,2.8689852E1,1.0283506E1,8.560847E2,1.7097609E2,4.2827873E1,2.9308832E1,2.2610173E3,8.231405E2,8.523537E1,3.9782697E2,3.5825257E0,1.836483E3,1.232042E0,1.0454259E2,3.6256235E0,7.3942003E0,2.6762806E1,1.9270465E0,9.1928625E0,1.0906438E0,8.367301E1,7.7241174E2,1.1202574E2,5.8950356E1,3.849279E1,4.335082E0,1.1504605E1,1.7804226E1,1.6193888E3,6.4162854E2,4.5598514E2,3.6715536E2,5.7277916E1,2.7957453E1,4.3753246E1,3.540737E2,2.5678477E0,1.0146779E0,1.8238938E3,1.2589212E1,1.0324273E2,1.299856E0,1.0141753E0,2.611448E0,6.3043146E0,1.089886E0,1.2770886E0,2.5485716E1,1.0026727E0,8.190189E0,6.565167E1,1.8021338E1,2.6530779E1,3.241958E1,3.225743E0,1.1093392E0,1.4350933E1,3.4532928E0,1.4867664E3,1.3262233E2,5.043377E2,1.3729086E2,2.6559753E2,1.903876E2,3.5835516E2,8.800196E0,1.0415942E1,4.6861973E1,5.0089E0,3.8744347E1,2.3873343E0,3.5168637E2],"tree_param":{"num_deleted":"0","num_feature":"29","num_nodes":"91","size_leaf_vector":"1"}},{"base_weights":[-5.2551967E-3,9.5998436E-1,-3.5870674E-1,1.0122374E0,3.46934E-1,-8.9831764E-1,-2.2275712E-1,1.0214957E0,7.053287E-1,6.7243826E-1,-3.6972177E-1,-3.0960658E-1,-7.274753E-1,-1.0886361E-1,-7.282451E-1,6.5552756E-2,1.0221795E0,9.603828E-1,-1.3744969E0,8.513543E-1,8.1385344E-2,8.163742E-1,-1.2052966E0,-8.1036586E-1,2.0731731E-1,1.1756165E-1,-5.268777E-1,9.6498585E-1,-8.4464353E-1,3.06865E-1,4.2729646E-1,2.273853E-1,3.013188E-1,-5.326883E-1,4.0061604E-2,9.1776097E-1,-2.664249E-1,5.271786E-1,-1.3661537E0,-1.5833631E-1,2.844725E-1,-3.9963394E-1,-1.3027797E0,-9.6851045E-1,-2.5784728E-1,1.0025268E0,-3.032435E-1,3.0507773E-1,-6.191315E-1,1.614027E-1,-7.480377E-1,1.1347084E0,-2.6480788E-1,-1.7751443E-1,-9.7794443E-1,6.9127134E-3,1.7775005E-1,1.8924108E-1,-1.1944225E-1,2.9163662E-1,-1.9848754E-1,2.1964677E-1,-2.6075235E-1,-5.1334333E-1,2.2633263E-4,7.547787E-2,-2.1392947E-1,-3.328565E-1,-5.966523E-1,-1.4775862E-1,-3.0830964E-1,-2.3919557E-1,4.7147703E-1,-2.9027072E-1,5.8561236E-1,1.3436362E-1,-2.1509407E-1,1.896519E-1,-2.1993285E-1,-3.78984E-2,5.473754E-1,-3.0123544E-1,-1.4150898E-2,3.5792288E-1,-1.3830417E-1,3.9621365E-1,-2.84073E-1,-4.3331373E-2,-3.0796778E-1],"categories":[],"categories_nodes":[],"categories_segments":[],"categories_sizes":[],"default_left":[0,0,0,0,0,0,0,0,0,0,0,0,0,0,0,0,0,0,0,0,0,0,0,0,0,0,0,0,0,0,0,0,0,0,0,0,0,0,0,0,0,0,0,0,0,0,0,0,0,0,0,0,0,0,0,0,0,0,0,0,0,0,0,0,0,0,0,0,0,0,0,0,0,0,0,0,0,0,0,0,0,0,0,0,0,0,0,0,0],"id":9,"left_children":[1,3,5,7,9,11,13,15,17,19,21,-1,23,25,27,-1,29,31,33,35,37,39,41,43,45,47,49,51,53,-1,55,57,-1,-1,-1,59,-1,61,63,-1,-1,65,67,69,71,73,-1,75,77,79,81,83,-1,85,87,-1,-1,-1,-1,-1,-1,-1,-1,-1,-1,-1,-1,-1,-1,-1,-1,-1,-1,-1,-1,-1,-1,-1,-1,-1,-1,-1,-1,-1,-1,-1,-1,-1,-1],"loss_changes":[1.922102E3,4.8022095E1,3.0232477E2,3.2319336E0,2.8270306E1,1.819812E1,1.8963669E2,5.1672363E-1,2.4640188E1,8.703548E0,3.8807312E1,0E0,2.8650436E1,2.5471698E2,1.2020624E2,0E0,1.2683105E-1,1.0539436E0,3.390873E0,8.158779E0,1.387326E1,3.402028E0,1.2695961E0,2.9270737E1,3.078646E1,2.4138704E2,1.4404535E2,1.3366875E1,5.0279327E1,0E0,2.0732623E-1,1.145505E0,0E0,0E0,0E0,5.943161E0,0E0,5.303229E0,2.3957596E0,0E0,0E0,9.761233E-1,4.3068695E-1,6.883606E0,7.6797104E1,3.7614708E1,0E0,2.0354787E2,5.1034897E1,1.1065672E2,1.2841461E2,3.9543648E0,0E0,1.115722E2,1.9003265E1,0E0,0E0,0E0,0E0,0E0,0E0,0E0,0E0,0E0,0E0,0E0,0E0,0E0,0E0,0E0,0E0,0E0,0E0,0E0,0E0,0E0,0E0,0E0,0E0,0E0,0E0,0E0,0E0,0E0,0E0,0E0,0E0,0E0,0E0],"parents":[2147483647,0,0,1,1,2,2,3,3,4,4,5,5,6,6,7,7,8,8,9,9,10,10,12,12,13,13,14,14,16,16,17,17,18,18,19,19,20,20,21,21,22,22,23,23,24,24,25,25,26,26,27,27,28,28,30,30,31,31,35,35,37,37,38,38,41,41,42,42,43,43,44,44,45,45,47,47,48,48,49,49,50,50,51,51,53,53,54,54],"right_children":[2,4,6,8,10,12,14,16,18,20,22,-1,24,26,28,-1,30,32,34,36,38,40,42,44,46,48,50,52,54,-1,56,58,-1,-1,-1,60,-1,62,64,-1,-1,66,68,70,72,74,-1,76,78,80,82,84,-1,86,88,-1,-1,-1,-1,-1,-1,-1,-1,-1,-1,-1,-1,-1,-1,-1,-1,-1,-1,-1,-1,-1,-1,-1,-1,-1,-1,-1,-1,-1,-1,-1,-1,-1,-1],"split_conditions":[-2.2518212E-1,-8.804354E-3,-8.546295E-1,7.859097E-1,4.9261907E-1,-6.923728E-2,-9.6787564E-2,-8.546295E-1,5.5566512E-2,9.1819155E-1,-7.87879E-2,-3.0960658E-1,8.655627E-1,9.2692566E-1,5.415146E-2,6.5552756E-2,1.27947E0,-1.16776474E-1,-6.733054E-1,2.0675457E0,-4.5581646E-2,-8.5233316E-2,1.011164E0,8.905452E-1,-2.6487002E-1,1.1755826E0,2.3458135E-1,3.023534E-1,-1.4862242E0,3.06865E-1,8.27131E3,-8.720691E-2,3.013188E-1,-5.326883E-1,4.0061604E-2,1.0863492E0,-2.664249E-1,-2.6354927E-1,-5.604661E-1,-1.5833631E-1,2.844725E-1,9.1431504E-1,5.528569E-2,2.517127E-1,1.2194338E0,-3.895621E-1,-3.032435E-1,-2.2730784E-2,-1.987571E0,2.1165538E-1,-3.128075E-1,3.7544623E-1,-2.6480788E-1,-1.0456902E0,1.2569802E-2,6.9127134E-3,1.7775005E-1,1.8924108E-1,-1.1944225E-1,2.9163662E-1,-1.9848754E-1,2.1964677E-1,-2.6075235E-1,-5.1334333E-1,2.2633263E-4,7.547787E-2,-2.1392947E-1,-3.328565E-1,-5.966523E-1,-1.4775862E-1,-3.0830964E-1,-2.3919557E-1,4.7147703E-1,-2.9027072E-1,5.8561236E-1,1.3436362E-1,-2.1509407E-1,1.896519E-1,-2.1993285E-1,-3.78984E-2,5.473754E-1,-3.0123544E-1,-1.4150898E-2,3.5792288E-1,-1.3830417E-1,3.9621365E-1,-2.84073E-1,-4.3331373E-2,-3.0796778E-1],"split_indices":[13,9,3,6,14,18,7,3,11,4,15,0,16,0,16,0,0,10,25,17,5,18,16,14,12,2,13,9,14,0,28,27,0,0,0,9,0,21,18,0,0,6,3,13,2,12,0,1,18,18,1,10,0,23,13,0,0,0,0,0,0,0,0,0,0,0,0,0,0,0,0,0,0,0,0,0,0,0,0,0,0,0,0,0,0,0,0,0,0],"split_type":[0,0,0,0,0,0,0,0,0,0,0,0,0,0,0,0,0,0,0,0,0,0,0,0,0,0,0,0,0,0,0,0,0,0,0,0,0,0,0,0,0,0,0,0,0,0,0,0,0,0,0,0,0,0,0,0,0,0,0,0,0,0,0,0,0,0,0,0,0,0,0,0,0,0,0,0,0,0,0,0,0,0,0,0,0,0,0,0,0],"sum_hessian":[5.6319204E3,1.5090754E3,4.1228447E3,1.3899523E3,1.19123245E2,8.2855164E2,3.2942932E3,1.3469907E3,4.2961452E1,8.1959175E1,3.716407E1,4.6196713E2,3.6658453E2,2.6895217E3,6.047715E2,1.4188539E0,1.3455719E3,3.8747936E1,4.2135153E0,6.2576427E1,1.938275E1,1.5369743E1,2.1794325E1,3.3684842E2,2.9736132E1,1.7450182E3,9.445035E2,3.8431E1,5.6634045E2,1.3432631E3,2.3088455E0,2.5441294E0,3.6203808E1,3.188061E0,1.0254542E0,6.07303E1,1.8461266E0,1.5305103E1,4.077646E0,1.1048896E0,1.4264854E1,2.9028459E0,1.889148E1,2.6130383E2,7.554457E1,1.809832E1,1.1637811E1,1.3914323E3,3.535859E2,2.2975244E2,7.1475104E2,3.555124E1,2.8797634E0,9.4704735E1,4.7163574E2,1.0003831E0,1.3084624E0,1.5415235E0,1.0026059E0,5.9081272E1,1.6490294E0,1.3760761E1,1.544342E0,3.0548131E0,1.0228325E0,1.0073794E0,1.8954664E0,1.6781498E1,2.109981E0,2.9930408E1,2.3137343E2,5.877651E1,1.676806E1,5.8797445E0,1.22185755E1,1.2213484E3,1.7008388E2,2.9138876E1,3.2444702E2,1.9665512E2,3.309732E1,5.23166E2,1.9158502E2,3.454017E1,1.0110705E0,3.188983E1,6.2814903E1,2.6211288E1,4.4542447E2],"tree_param":{"num_deleted":"0","num_feature":"29","num_nodes":"89","size_leaf_vector":"1"}},{"base_weights":[-7.6478086E-3,9.5215285E-1,-2.991399E-1,9.8700583E-1,-9.0940696E-1,-7.037883E-1,-1.3731185E-1,9.9900454E-1,-5.411969E-1,-3.250358E-1,-1.8490275E-2,-9.172709E-1,-4.3365338E-1,-6.312917E-2,-9.0542835E-1,1.0057626E0,-4.7247913E-1,4.2528522E-1,-3.9839265E-1,-2.4801932E-1,2.3252152E-1,-5.129624E-1,-9.99439E-1,-1.9349265E-1,-9.674222E-1,2.7106216E-2,-7.7726203E-1,-9.6534395E-1,9.2091566E-1,-3.3765644E-1,1.0098498E0,-2.9887655E-1,1.851989E-1,2.3916592E-1,-1.519435E-1,-1.400024E-1,-3.2073066E-1,-1.0370313E0,-8.734401E-1,-7.064754E-1,2.7297464E-1,-5.1469123E-1,-3.1061667E-1,9.400566E-2,-9.608841E-1,6.473378E-2,-9.465633E-1,-1.0265474E0,3.103693E-1,-2.458264E-1,2.0068119E0,1.8196604E-1,-2.583254E-1,3.032886E-1,-2.0568905E-2,1.4434804E-1,-3.3532196E-1,-8.3230525E-2,-3.123843E-1,-8.105294E-2,-2.972685E-1,1.5420614E-1,-3.067891E-1,4.3989584E-1,-3.210819E-2,-3.025706E-1,1.1150505E-1,-5.7583977E-2,9.269205E-2,-3.4608772E-1,4.140074E-1,-2.3063742E-1,4.5144525E-1,2.2440267E-1,-3.1523207E-1,-3.200651E-1,-1.5549299E-1,-3.2872742E-1,2.564001E-1,1.6579007E-1,7.136055E-1],"categories":[],"categories_nodes":[],"categories_segments":[],"categories_sizes":[],"default_left":[0,0,0,0,0,0,0,0,0,0,0,0,0,0,0,0,0,0,0,0,0,0,0,0,0,0,0,0,0,0,0,0,0,0,0,0,0,0,0,0,0,0,0,0,0,0,0,0,0,0,0,0,0,0,0,0,0,0,0,0,0,0,0,0,0,0,0,0,0,0,0,0,0,0,0,0,0,0,0,0,0],"id":10,"left_children":[1,3,5,7,9,11,13,15,17,-1,19,21,23,25,27,29,31,33,-1,-1,-1,35,37,39,41,43,45,47,49,51,53,-1,-1,-1,-1,55,-1,57,59,61,63,65,-1,67,69,71,73,75,77,-1,79,-1,-1,-1,-1,-1,-1,-1,-1,-1,-1,-1,-1,-1,-1,-1,-1,-1,-1,-1,-1,-1,-1,-1,-1,-1,-1,-1,-1,-1,-1],"loss_changes":[1.3504823E3,7.3854614E1,2.4235907E2,2.0789429E1,3.2651482E0,6.0586304E1,1.507182E2,1.1374634E1,7.5995855E0,0E0,3.5141015E0,1.9080688E1,5.98956E1,1.555857E2,2.6381958E1,6.333374E0,3.8636136E0,2.1050138E0,0E0,0E0,0E0,2.0938797E1,1.4109192E0,7.784378E1,3.934784E0,1.4181647E2,3.867137E1,1.7968674E1,1.659643E1,2.5286572E0,1.3745117E0,0E0,0E0,0E0,0E0,3.819802E1,0E0,9.099121E-1,8.145332E0,6.0267746E1,7.755573E1,9.541836E0,0E0,1.23564255E2,6.298726E1,5.6707947E1,4.0620148E1,3.8738708E0,9.444637E0,0E0,1.4768562E0,0E0,0E0,0E0,0E0,0E0,0E0,0E0,0E0,0E0,0E0,0E0,0E0,0E0,0E0,0E0,0E0,0E0,0E0,0E0,0E0,0E0,0E0,0E0,0E0,0E0,0E0,0E0,0E0,0E0,0E0],"parents":[2147483647,0,0,1,1,2,2,3,3,4,4,5,5,6,6,7,7,8,8,10,10,11,11,12,12,13,13,14,14,15,15,16,16,17,17,21,21,22,22,23,23,24,24,25,25,26,26,27,27,28,28,29,29,30,30,35,35,37,37,38,38,39,39,40,40,41,41,43,43,44,44,45,45,46,46,47,47,48,48,50,50],"right_children":[2,4,6,8,10,12,14,16,18,-1,20,22,24,26,28,30,32,34,-1,-1,-1,36,38,40,42,44,46,48,50,52,54,-1,-1,-1,-1,56,-1,58,60,62,64,66,-1,68,70,72,74,76,78,-1,80,-1,-1,-1,-1,-1,-1,-1,-1,-1,-1,-1,-1,-1,-1,-1,-1,-1,-1,-1,-1,-1,-1,-1,-1,-1,-1,-1,-1,-1,-1],"split_conditions":[-5.780271E-2,6.910435E-1,-6.0381156E-1,1.829898E0,9.648927E-2,-1.6671125E-2,1.6359638E0,3.565873E-1,-8.476808E-2,-3.250358E-1,-6.4113057E-1,2.6603025E-1,7.291295E-1,-6.819035E-2,1.2223885E0,-8.966493E-1,-6.0381156E-1,-3.1838986E-1,-3.9839265E-1,-2.4801932E-1,2.3252152E-1,6.730373E-1,3.572757E-1,8.10868E-2,2.6603025E-1,1.0752859E0,-1.6422828E0,1.7538409E0,2.082821E-1,-4.4869387E-1,1.2124153E0,-2.9887655E-1,1.851989E-1,2.3916592E-1,-1.519435E-1,6.142067E-1,-3.2073066E-1,-2.0053554E0,4.1204408E-1,2.517127E-1,-1.2023316E-1,1.3287483E0,-3.1061667E-1,2.8138426E-1,1.126252E0,1.0144717E0,5.415146E-2,-2.2403991E-1,4.2160872E-1,-2.458264E-1,6.246442E-1,1.8196604E-1,-2.583254E-1,3.032886E-1,-2.0568905E-2,1.4434804E-1,-3.3532196E-1,-8.3230525E-2,-3.123843E-1,-8.105294E-2,-2.972685E-1,1.5420614E-1,-3.067891E-1,4.3989584E-1,-3.210819E-2,-3.025706E-1,1.1150505E-1,-5.7583977E-2,9.269205E-2,-3.4608772E-1,4.140074E-1,-2.3063742E-1,4.5144525E-1,2.2440267E-1,-3.1523207E-1,-3.200651E-1,-1.5549299E-1,-3.2872742E-1,2.564001E-1,1.6579007E-1,7.136055E-1],"split_indices":[9,11,3,6,3,18,0,2,13,0,0,13,9,7,24,10,3,2,0,0,0,8,24,21,13,24,14,15,14,2,13,0,0,0,0,4,0,22,13,13,20,15,0,4,0,0,16,19,11,0,23,0,0,0,0,0,0,0,0,0,0,0,0,0,0,0,0,0,0,0,0,0,0,0,0,0,0,0,0,0,0],"split_type":[0,0,0,0,0,0,0,0,0,0,0,0,0,0,0,0,0,0,0,0,0,0,0,0,0,0,0,0,0,0,0,0,0,0,0,0,0,0,0,0,0,0,0,0,0,0,0,0,0,0,0,0,0,0,0,0,0,0,0,0,0,0,0,0,0,0,0,0,0,0,0,0,0,0,0,0,0,0,0,0,0],"sum_hessian":[4.825024E3,1.1234746E3,3.7015493E3,1.1032881E3,2.0186491E1,1.0564827E3,2.6450667E3,1.0950367E3,8.251379E0,1.6706642E1,3.4798477E0,5.887828E2,4.6769992E2,2.4130981E3,2.3196854E2,1.0903456E3,4.691147E0,3.909003E0,4.3423758E0,1.703272E0,1.7765758E0,1.0067142E2,4.8811133E2,3.2350604E2,1.4419388E2,2.1432468E3,2.698513E2,2.2505669E2,6.9118457E0,3.059606E0,1.087286E3,3.2263608E0,1.464786E0,2.896998E0,1.0120052E0,6.1009075E1,3.9662342E1,3.7037723E2,1.17734116E2,1.5382611E2,1.6967993E2,1.99406E1,1.2425328E2,2.008173E3,1.3507387E2,4.52792E1,2.2457208E2,2.1494006E2,1.0116624E1,2.7499578E0,4.161888E0,1.0345595E0,2.0250466E0,1.0862283E3,1.0577021E0,3.7618008E1,2.3391068E1,2.429369E0,3.6794788E2,1.972486E1,9.8009254E1,3.1519861E1,1.22306244E2,4.0291428E1,1.293885E2,1.2716987E1,7.2236123E0,8.6184534E2,1.1463276E3,1.25267044E2,9.806828E0,2.8974699E1,1.6304502E1,1.2652399E1,2.119197E2,1.981173E2,1.6822767E1,2.5404687E0,7.576155E0,1.3538508E0,2.808037E0],"tree_param":{"num_deleted":"0","num_feature":"29","num_nodes":"81","size_leaf_vector":"1"}},{"base_weights":[-8.771562E-3,9.867463E-1,-2.3960227E-1,1.0001935E0,-9.925842E-1,-9.6081686E-1,-1.5423575E-1,1.0046251E0,-2.1234928E-1,-7.3976554E-2,-3.3162865E-1,7.7090454E-1,-1.014749E0,-3.0352047E-1,2.3997831E-1,-2.6827425E-2,1.00655E0,4.0099487E-1,-2.922301E-1,-7.2214645E-1,-3.3373252E-1,-1.15210526E-1,-7.135597E-1,-2.7346185E-1,4.800414E-1,3.4132278E-1,1.0090538E0,-1.0625242E0,-9.95277E-2,1.5478043E-3,-9.547514E-1,-8.721779E-1,6.429808E-2,1.0454475E-1,-1.3495815E0,-6.430551E-1,6.241616E-1,2.1680816E-1,-1.4544117E-1,3.0309325E-1,2.0776633E-2,5.0550416E-2,-3.2881373E-1,1.8209694E-1,-2.3782489E-1,-1.8578972E-1,4.9744442E-2,-1.1198277E-1,-3.846093E-1,-7.877493E-2,-2.993977E-1,3.447184E-1,-1.974562E-1,1.20484054E-1,-3.5557795E-1,-4.6908414E-1,-3.4328386E-1,-8.344047E-2,-4.470839E-1,2.1089427E-1,-3.565438E-1],"categories":[],"categories_nodes":[],"categories_segments":[],"categories_sizes":[],"default_left":[0,0,0,0,0,0,0,0,0,0,0,0,0,0,0,0,0,0,0,0,0,0,0,0,0,0,0,0,0,0,0,0,0,0,0,0,0,0,0,0,0,0,0,0,0,0,0,0,0,0,0,0,0,0,0,0,0,0,0,0,0],"id":11,"left_children":[1,3,5,7,9,11,13,15,-1,-1,-1,17,19,21,23,-1,25,-1,-1,27,-1,29,31,33,35,37,39,41,43,45,47,49,51,53,55,57,59,-1,-1,-1,-1,-1,-1,-1,-1,-1,-1,-1,-1,-1,-1,-1,-1,-1,-1,-1,-1,-1,-1,-1,-1],"loss_changes":[9.702375E2,2.2145447E1,2.1086945E2,6.6898193E0,2.2111082E-1,3.4643585E1,1.8049895E2,1.749939E0,0E0,0E0,0E0,1.267354E1,9.259705E0,1.7165729E2,1.0399689E2,0E0,9.663086E-1,0E0,0E0,1.9172527E1,0E0,1.4952576E2,8.639847E1,1.09608826E2,9.340024E1,1.7561846E0,8.555298E-1,2.6074524E0,1.6769262E1,1.3677753E2,3.4964417E1,4.432379E1,9.438095E1,7.713883E1,1.28788E0,1.9940315E1,7.366017E1,0E0,0E0,0E0,0E0,0E0,0E0,0E0,0E0,0E0,0E0,0E0,0E0,0E0,0E0,0E0,0E0,0E0,0E0,0E0,0E0,0E0,0E0,0E0,0E0],"parents":[2147483647,0,0,1,1,2,2,3,3,4,4,5,5,6,6,7,7,11,11,12,12,13,13,14,14,16,16,19,19,21,21,22,22,23,23,24,24,25,25,26,26,27,27,28,28,29,29,30,30,31,31,32,32,33,33,34,34,35,35,36,36],"right_children":[2,4,6,8,10,12,14,16,-1,-1,-1,18,20,22,24,-1,26,-1,-1,28,-1,30,32,34,36,38,40,42,44,46,48,50,52,54,56,58,60,-1,-1,-1,-1,-1,-1,-1,-1,-1,-1,-1,-1,-1,-1,-1,-1,-1,-1,-1,-1,-1,-1,-1,-1],"split_conditions":[1.7710045E-2,1.3287483E0,-7.868021E-2,2.1405056E0,1.14915304E-1,-8.258941E-1,2.9198032E-2,-8.546295E-1,-2.1234928E-1,-7.3976554E-2,-3.3162865E-1,1.919437E-1,3.5467172E-1,7.2597677E-1,3.727993E-1,-2.6827425E-2,-2.476251E0,4.0099487E-1,-2.922301E-1,-2.747443E-1,-3.3373252E-1,7.9305947E-1,8.96207E-1,1.0998108E0,-2.5571504E-1,-8.2892555E-1,9.7340417E-1,1.0187434E-1,5.982736E-1,7.0777265E-3,-2.880153E-1,-2.4368238E-1,-1.0250741E0,1.31376E0,-1.4967537E-1,7.643798E-1,1.7417638E0,2.1680816E-1,-1.4544117E-1,3.0309325E-1,2.0776633E-2,5.0550416E-2,-3.2881373E-1,1.8209694E-1,-2.3782489E-1,-1.8578972E-1,4.9744442E-2,-1.1198277E-1,-3.846093E-1,-7.877493E-2,-2.993977E-1,3.447184E-1,-1.974562E-1,1.20484054E-1,-3.5557795E-1,-4.6908414E-1,-3.4328386E-1,-8.344047E-2,-4.470839E-1,2.1089427E-1,-3.565438E-1],"split_indices":[16,15,17,9,21,6,3,3,0,0,0,11,11,13,16,0,2,0,0,10,0,4,6,15,27,11,0,16,16,5,19,7,12,9,7,16,12,0,0,0,0,0,0,0,0,0,0,0,0,0,0,0,0,0,0,0,0,0,0,0,0],"split_type":[0,0,0,0,0,0,0,0,0,0,0,0,0,0,0,0,0,0,0,0,0,0,0,0,0,0,0,0,0,0,0,0,0,0,0,0,0,0,0,0,0,0,0,0,0,0,0,0,0,0,0,0,0,0,0,0,0,0,0,0,0],"sum_hessian":[4.220138E3,7.937234E2,3.4264148E3,7.888587E2,4.8646584E0,3.6155774E2,3.064857E3,7.8722797E2,1.6307111E0,1.0576866E0,3.8069718E0,1.0518628E1,3.510391E2,2.2231887E3,8.4166815E2,1.3027371E0,7.8592523E2,8.120053E0,2.398575E0,8.996722E1,2.610719E2,1.5243939E3,6.9879486E2,2.6810776E2,5.735604E2,3.4620597E0,7.824632E2,5.7710876E1,3.2256344E1,1.339151E3,1.8524297E2,5.803338E2,1.1846102E2,1.990801E2,6.902766E1,6.483712E1,5.0872327E2,2.454276E0,1.0077835E0,7.8134314E2,1.1200322E0,1.4231012E0,5.6287773E1,1.6036581E1,1.621976E1,2.7960696E2,1.0595441E3,6.7484406E1,1.1775856E2,9.981212E1,4.805217E2,4.712123E1,7.133979E1,1.6237125E2,3.6708843E1,3.0556055E1,3.8471603E1,4.6246094E1,1.8591028E1,4.8811087E2,2.061241E1],"tree_param":{"num_deleted":"0","num_feature":"29","num_nodes":"61","size_leaf_vector":"1"}},{"base_weights":[-1.0645848E-2,9.5353305E-1,-2.0473538E-1,9.8533803E-1,3.7950233E-1,-8.351483E-1,-1.11929536E-1,9.905945E-1,-4.7965445E-2,-8.621752E-1,7.018549E-1,-9.408614E-1,-4.2573193E-1,-4.6429027E-2,-7.8770274E-1,9.926049E-1,-1.8074082E-2,2.0244923E-1,-3.2384032E-1,1.8373996E-1,-1.4874251E0,2.8784686E-1,1.1075198E-1,-1.0076797E0,-2.1970741E-1,-9.512483E-1,3.1103006E-1,1.9854622E-2,-8.8656986E-1,8.90472E-1,-1.103669E0,1.5939236E-2,9.941981E-1,-5.868178E-1,-5.212195E-1,-3.7029746E-1,5.87064E-1,-3.0414808E-1,-4.5282146E-1,-8.941164E-1,6.159936E-1,-2.991976E-1,-1.5471847E-1,1.2805535E0,-8.6795074E-1,-6.680131E-1,1.0208754E-1,-1.1145573E0,5.228934E-1,-2.6026243E-1,9.661855E-1,3.324423E-1,-1.3351496E0,2.9875138E-1,9.0238534E-2,-4.0326573E-2,-1.9192249E-1,-1.925598E-1,2.630348E-1,-2.3496908E-1,1.2724133E-1,-2.9462016E-1,-1.0997881E-1,-2.5407365E-1,3.7553543E-1,-2.3599611E-1,2.0758955E-1,-2.4951069E-1,5.6359345E-1,-4.5542732E-2,-2.942166E-1,-2.8778207E-1,1.0602907E-1,-1.6992301E-1,6.0840283E-2,-3.4478056E-1,-1.1072514E-1,4.0130627E-1,-3.3207262E-1,3.0585435E-1,-1.4108889E-1,2.8432456E-1,-3.2050115E-1,-3.5927653E-1,-4.859703E-1],"categories":[],"categories_nodes":[],"categories_segments":[],"categories_sizes":[],"default_left":[0,0,0,0,0,0,0,0,0,0,0,0,0,0,0,0,0,0,0,0,0,0,0,0,0,0,0,0,0,0,0,0,0,0,0,0,0,0,0,0,0,0,0,0,0,0,0,0,0,0,0,0,0,0,0,0,0,0,0,0,0,0,0,0,0,0,0,0,0,0,0,0,0,0,0,0,0,0,0,0,0,0,0,0,0],"id":12,"left_children":[1,3,5,7,9,11,13,15,17,19,21,23,25,27,29,31,-1,-1,-1,-1,33,-1,35,37,39,41,43,45,47,49,51,-1,53,-1,55,-1,57,-1,59,61,63,-1,65,67,69,71,73,75,77,-1,79,81,83,-1,-1,-1,-1,-1,-1,-1,-1,-1,-1,-1,-1,-1,-1,-1,-1,-1,-1,-1,-1,-1,-1,-1,-1,-1,-1,-1,-1,-1,-1,-1,-1],"loss_changes":[6.976112E2,1.103064E1,1.8145656E2,3.25885E0,1.4381989E1,1.6827087E1,1.19742874E2,1.3027344E0,3.6706727E0,7.865638E0,4.139103E0,1.4983002E1,3.2630066E1,1.3745488E2,1.2773831E2,8.2611084E-1,0E0,0E0,0E0,0E0,1.5109625E0,0E0,6.870383E0,5.2493286E-1,1.635162E1,1.6437263E0,4.1714413E1,1.295184E2,5.8584137E1,5.9534836E0,6.7468704E1,0E0,3.670044E-1,0E0,6.018114E-2,0E0,3.3262908E0,0E0,1.7717957E0,3.7872887E-1,1.3256178E1,0E0,2.6110194E0,2.6697872E1,1.1937819E0,7.308045E1,1.3779803E2,3.604416E0,3.5757862E1,0E0,3.3381577E0,2.5824907E1,4.8691406E0,0E0,0E0,0E0,0E0,0E0,0E0,0E0,0E0,0E0,0E0,0E0,0E0,0E0,0E0,0E0,0E0,0E0,0E0,0E0,0E0,0E0,0E0,0E0,0E0,0E0,0E0,0E0,0E0,0E0,0E0,0E0,0E0],"parents":[2147483647,0,0,1,1,2,2,3,3,4,4,5,5,6,6,7,7,8,8,9,9,10,10,11,11,12,12,13,13,14,14,15,15,20,20,22,22,23,23,24,24,25,25,26,26,27,27,28,28,29,29,30,30,32,32,34,34,36,36,38,38,39,39,40,40,42,42,43,43,44,44,45,45,46,46,47,47,48,48,50,50,51,51,52,52],"right_children":[2,4,6,8,10,12,14,16,18,20,22,24,26,28,30,32,-1,-1,-1,-1,34,-1,36,38,40,42,44,46,48,50,52,-1,54,-1,56,-1,58,-1,60,62,64,-1,66,68,70,72,74,76,78,-1,80,82,84,-1,-1,-1,-1,-1,-1,-1,-1,-1,-1,-1,-1,-1,-1,-1,-1,-1,-1,-1,-1,-1,-1,-1,-1,-1,-1,-1,-1,-1,-1,-1,-1],"split_conditions":[-3.6231786E-1,7.299766E-1,-9.1823107E-1,2.7382827E0,9.687444E-2,8.905452E-1,-1.7174616E-2,8.67924E-1,-9.846171E-2,2.2237618E-1,-8.804354E-3,8.487708E-1,-1.5084842E-1,1.3050319E0,1.7710045E-2,-8.546295E-1,-1.8074082E-2,2.0244923E-1,-3.2384032E-1,1.8373996E-1,-4.0923454E-2,2.8784686E-1,-2.0762977E-1,1.829898E0,-1.01515E0,1.5247341E0,1.2225851E0,-6.701225E-1,1.3012211E-1,-2.0602497E-1,-9.6341026E-1,1.5939236E-2,3.3387065E0,-5.868178E-1,-2.9845357E-1,-3.7029746E-1,1.9141762E-1,-3.0414808E-1,4.9249083E-1,2.2243125E-2,1.7838563E-1,-2.991976E-1,-3.4715134E-1,-1.3706295E0,1.2865442E0,8.169508E-1,-2.8539726E-1,2.1526878E0,-4.589187E-1,-2.6026243E-1,6.9957817E-1,4.376995E-1,7.157275E-1,2.9875138E-1,9.0238534E-2,-4.0326573E-2,-1.9192249E-1,-1.925598E-1,2.630348E-1,-2.3496908E-1,1.2724133E-1,-2.9462016E-1,-1.0997881E-1,-2.5407365E-1,3.7553543E-1,-2.3599611E-1,2.0758955E-1,-2.4951069E-1,5.6359345E-1,-4.5542732E-2,-2.942166E-1,-2.8778207E-1,1.0602907E-1,-1.6992301E-1,6.0840283E-2,-3.4478056E-1,-1.1072514E-1,4.0130627E-1,-3.3207262E-1,3.0585435E-1,-1.4108889E-1,2.8432456E-1,-3.2050115E-1,-3.5927653E-1,-4.859703E-1],"split_indices":[13,6,3,15,10,14,1,9,5,4,9,16,26,8,16,3,0,0,0,0,8,0,20,6,3,6,14,21,20,3,19,0,1,0,21,0,3,0,16,10,5,0,26,3,14,16,22,25,12,0,27,13,4,0,0,0,0,0,0,0,0,0,0,0,0,0,0,0,0,0,0,0,0,0,0,0,0,0,0,0,0,0,0,0,0],"split_type":[0,0,0,0,0,0,0,0,0,0,0,0,0,0,0,0,0,0,0,0,0,0,0,0,0,0,0,0,0,0,0,0,0,0,0,0,0,0,0,0,0,0,0,0,0,0,0,0,0,0,0,0,0,0,0,0,0,0,0,0,0,0,0,0,0,0,0,0,0,0,0,0,0,0,0,0,0,0,0,0,0,0,0,0,0],"sum_hessian":[3.7257664E3,6.236662E2,3.1021003E3,5.902462E2,3.3419968E1,3.970454E2,2.705055E3,5.872999E2,2.9462843E0,6.5428343E0,2.6877134E1,3.1453345E2,8.251197E1,2.467005E3,2.3805008E2,5.8623376E2,1.0661267E0,1.9356856E0,1.0105987E0,1.9542385E0,4.588596E0,1.8284529E1,8.592606E0,2.8749808E2,2.703536E1,4.7990364E1,3.4521606E1,2.2875063E3,1.7949844E2,3.7430305E1,2.0061978E2,1.0506153E0,5.8518317E2,2.4000401E0,2.1885557E0,1.8308823E0,6.761723E0,2.8352975E2,3.9683287E0,1.4922795E1,1.2112564E1,4.512776E1,2.8626027E0,1.889628E1,1.5625325E1,2.4350394E2,2.0440024E3,1.5468642E2,2.4812027E1,1.1136626E0,3.6316643E1,2.7787743E1,1.7283203E2,5.833674E2,1.8157855E0,1.0138853E0,1.1746705E0,1.0580785E0,5.7036448E0,2.959985E0,1.0083435E0,1.2051795E1,2.8709998E0,3.5688527E0,8.543712E0,1.6797762E0,1.1828265E0,4.0836425E0,1.4812637E1,2.44497E0,1.3180355E1,1.8952306E2,5.3980877E1,2.6701743E2,1.776985E3,1.472867E2,7.399724E0,1.6661568E1,8.150458E0,3.529654E1,1.0201026E0,1.9531675E1,8.256068E0,1.20044945E2,5.278709E1],"tree_param":{"num_deleted":"0","num_feature":"29","num_nodes":"85","size_leaf_vector":"1"}},{"base_weights":[-1.2227222E-2,9.5630133E-1,-1.6580446E-1,9.743723E-1,-8.5212874E-1,-9.1098464E-1,-9.4376065E-2,9.792135E-1,-1.697263E-1,-6.74688E-2,-2.8606573E-1,-2.9196084E-1,-1.0504667E0,-8.184636E-1,-2.848603E-2,-1.5629899E-2,9.821436E-1,4.715462E-1,-8.415835E-1,-1.7501011E-1,-3.261898E-1,-2.960864E-1,-9.467194E-1,4.5178186E-2,-6.1262274E-1,1.7639439E-1,9.863861E-1,9.5894915E-1,-6.5087426E-1,-1.0043705E0,2.4799207E-1,-3.2307705E-1,2.3966883E-1,-2.928435E-1,3.249943E-1,-9.798753E-1,-2.3145556E-1,1.3806175E-1,-5.9550905E-1,-9.545484E-1,-8.758908E-2,1.8296006E-1,-1.307532E-1,2.965549E-1,1.6018262E-2,-1.7230354E-1,3.445375E-1,8.166508E-2,-2.612787E-1,5.463354E-2,-3.2873812E-1,-2.777504E-1,2.8288326E-1,-2.9960123E-1,-1.7391531E-1,-2.514873E-1,1.3598429E-1,7.759036E-2,-9.179491E-2,3.514524E-3,-2.8279075E-1,1.5166819E-1,-3.0810493E-1,-9.255444E-2,5.5806845E-1],"categories":[],"categories_nodes":[],"categories_segments":[],"categories_sizes":[],"default_left":[0,0,0,0,0,0,0,0,0,0,0,0,0,0,0,0,0,0,0,0,0,0,0,0,0,0,0,0,0,0,0,0,0,0,0,0,0,0,0,0,0,0,0,0,0,0,0,0,0,0,0,0,0,0,0,0,0,0,0,0,0,0,0,0,0],"id":13,"left_children":[1,3,5,7,9,11,13,15,-1,-1,-1,17,19,21,23,-1,25,27,29,31,-1,33,35,37,39,41,43,45,47,49,-1,-1,-1,-1,51,53,55,57,59,61,63,-1,-1,-1,-1,-1,-1,-1,-1,-1,-1,-1,-1,-1,-1,-1,-1,-1,-1,-1,-1,-1,-1,-1,-1],"loss_changes":[5.003701E2,1.5876617E1,1.5445822E2,3.9563599E0,1.0927224E-1,2.1611542E1,1.2643914E2,1.4268799E0,0E0,0E0,0E0,2.0567223E1,6.4775696E0,1.4529373E1,1.0461603E2,0E0,1.3780212E0,1.1980963E1,8.517309E0,9.240557E0,0E0,1.9336164E1,3.971222E0,1.2858263E2,4.8793205E1,1.2200954E0,8.4439087E-1,4.9828625E0,1.634809E0,3.0460186E0,0E0,0E0,0E0,0E0,1.9644255E1,6.911316E-1,4.1825852E0,1.0109431E2,5.7681374E1,1.7954834E1,4.7255093E1,0E0,0E0,0E0,0E0,0E0,0E0,0E0,0E0,0E0,0E0,0E0,0E0,0E0,0E0,0E0,0E0,0E0,0E0,0E0,0E0,0E0,0E0,0E0,0E0],"parents":[2147483647,0,0,1,1,2,2,3,3,4,4,5,5,6,6,7,7,11,11,12,12,13,13,14,14,16,16,17,17,18,18,19,19,21,21,22,22,23,23,24,24,25,25,26,26,27,27,28,28,29,29,34,34,35,35,36,36,37,37,38,38,39,39,40,40],"right_children":[2,4,6,8,10,12,14,16,-1,-1,-1,18,20,22,24,-1,26,28,30,32,-1,34,36,38,40,42,44,46,48,50,-1,-1,-1,-1,52,54,56,58,60,62,64,-1,-1,-1,-1,-1,-1,-1,-1,-1,-1,-1,-1,-1,-1,-1,-1,-1,-1,-1,-1,-1,-1,-1,-1],"split_conditions":[1.7710045E-2,1.3287483E0,-7.868021E-2,2.1405056E0,1.14915304E-1,2.1602397E-1,-9.7738564E-1,-8.546295E-1,-1.697263E-1,-6.74688E-2,-2.8606573E-1,2.354195E-1,-1.3711488E0,1.8849564E-1,1.2851231E0,-1.5629899E-2,-2.476251E0,4.7768578E-1,7.6056343E-1,-8.6718565E-3,-3.261898E-1,7.8668E-1,9.0751356E-1,1.486478E0,3.9253974E-1,-8.2892555E-1,9.5225394E-1,-8.688451E-1,2.0666142E-1,1.2569802E-2,2.4799207E-1,-3.2307705E-1,2.3966883E-1,-2.928435E-1,-1.3706295E0,-1.0043014E0,-7.039902E-2,8.6552894E-1,2.0666142E-1,-2.2010207E0,1.6023858E-1,1.8296006E-1,-1.307532E-1,2.965549E-1,1.6018262E-2,-1.7230354E-1,3.445375E-1,8.166508E-2,-2.612787E-1,5.463354E-2,-3.2873812E-1,-2.777504E-1,2.8288326E-1,-2.9960123E-1,-1.7391531E-1,-2.514873E-1,1.3598429E-1,7.759036E-2,-9.179491E-2,3.514524E-3,-2.8279075E-1,1.5166819E-1,-3.0810493E-1,-9.255444E-2,5.5806845E-1],"split_indices":[16,15,17,9,21,11,3,3,0,0,0,6,26,9,2,0,2,2,3,20,0,14,16,0,21,11,0,3,13,13,0,0,0,0,3,3,10,13,13,18,20,0,0,0,0,0,0,0,0,0,0,0,0,0,0,0,0,0,0,0,0,0,0,0,0],"split_type":[0,0,0,0,0,0,0,0,0,0,0,0,0,0,0,0,0,0,0,0,0,0,0,0,0,0,0,0,0,0,0,0,0,0,0,0,0,0,0,0,0,0,0,0,0,0,0,0,0,0,0,0,0,0,0,0,0,0,0,0,0,0,0,0,0],"sum_hessian":[3.3619038E3,4.5941226E2,2.9024915E3,4.5532358E2,4.088672E0,2.5285155E2,2.6496401E3,4.542599E2,1.0637043E0,1.0169511E0,3.071721E0,4.706581E1,2.0578572E2,2.2004713E2,2.4295928E3,1.2394081E0,4.5302048E2,1.9759293E1,2.730652E1,8.540536E0,1.972452E2,4.402892E1,1.7601822E2,2.1583328E3,2.7126004E2,2.595818E0,4.5042465E2,1.3878359E1,5.8809347E0,2.5241383E1,2.065138E0,4.37924E0,4.1612964E0,2.0743704E1,2.3285215E1,1.6786684E2,8.1513815E0,1.8857334E3,2.7259946E2,1.6378061E2,1.0747943E2,1.5220565E0,1.0737616E0,4.4933923E2,1.0854222E0,1.3032472E0,1.2575111E1,1.0864447E0,4.79449E0,1.7348409E0,2.350654E1,7.5349793E0,1.57502365E1,1.5890726E2,8.959581E0,4.202626E0,3.9487553E0,1.4833677E3,4.0236572E2,9.950426E1,1.730952E2,7.461776E0,1.5631883E2,9.728658E1,1.019285E1],"tree_param":{"num_deleted":"0","num_feature":"29","num_nodes":"65","size_leaf_vector":"1"}},{"base_weights":[-1.3753324E-2,9.255181E-1,-1.4035684E-1,9.598461E-1,3.613676E-1,-2.4800096E-2,-5.394594E-1,9.6818393E-1,-8.918348E-2,-7.631053E-1,6.4911413E-1,1.573171E-1,-3.2504374E-1,-7.56847E-1,-1.1282813E-1,9.712876E-1,7.3156727E-4,1.8784495E-1,-2.9122782E-1,1.4072357E-1,-1.2450709E0,2.7961075E-1,3.688884E-2,2.871317E-1,-3.9801678E-1,5.818197E-1,-5.148342E-1,-3.9045453E-1,-9.9513084E-1,-1.4065253E0,5.582569E-2,1.5893877E-2,9.739921E-1,-4.5176977E-1,-7.4133374E-2,-3.4593314E-1,5.6214553E-1,-2.2211036E-1,4.6467906E-1,-1.0522383E0,-2.8496843E-2,9.367467E-1,-1.6998829E-1,-8.742604E-1,-2.322891E-1,8.087027E-1,-6.9994617E-1,-5.200157E-2,-1.0476317E0,-1.6300129E0,-2.7974677E-1,-6.666278E-1,4.3846065E-1,2.96356E-1,2.0247601E-1,2.3722264E-1,-6.692179E-2,6.1519176E-2,-2.023393E-1,1.6499922E-1,-3.3792624E-1,-3.7749583E-1,2.3133263E-1,-2.7809212E-1,1.0620612E-1,3.3120874E-1,-1.0537347E-1,-2.3972066E-1,2.4908616E-1,-2.910005E-1,2.8508937E-1,-1.9336592E-1,7.147123E-2,3.347169E-1,-2.4839932E-1,-2.8880388E-1,2.8578386E-1,-2.250455E-1,2.2448878E-1,-3.298586E-1,-1.9793954E-1,-5.952146E-1,-2.9837403E-1,1.7533517E-1,-3.402831E-1,1.9547401E-1,-3.0000073E-1],"categories":[],"categories_nodes":[],"categories_segments":[],"categories_sizes":[],"default_left":[0,0,0,0,0,0,0,0,0,0,0,0,0,0,0,0,0,0,0,0,0,0,0,0,0,0,0,0,0,0,0,0,0,0,0,0,0,0,0,0,0,0,0,0,0,0,0,0,0,0,0,0,0,0,0,0,0,0,0,0,0,0,0,0,0,0,0,0,0,0,0,0,0,0,0,0,0,0,0,0,0,0,0,0,0,0,0],"id":14,"left_children":[1,3,5,7,9,11,13,15,17,19,21,23,25,27,29,31,-1,-1,-1,-1,33,-1,35,37,39,41,43,45,47,49,51,-1,53,-1,-1,-1,55,57,59,61,63,65,67,69,71,73,75,77,79,81,-1,83,85,-1,-1,-1,-1,-1,-1,-1,-1,-1,-1,-1,-1,-1,-1,-1,-1,-1,-1,-1,-1,-1,-1,-1,-1,-1,-1,-1,-1,-1,-1,-1,-1,-1,-1],"loss_changes":[3.6364706E2,6.687561E0,1.24264175E2,3.0758972E0,7.755578E0,1.1437058E2,5.6024734E1,1.0142822E0,2.8849194E0,3.5721369E0,3.1538968E0,9.3978424E1,1.3621536E2,3.4586548E1,4.4892216E1,7.8808594E-1,0E0,0E0,0E0,0E0,6.405573E-1,0E0,4.935406E0,9.557365E1,5.970939E1,3.675189E1,6.616757E1,5.9765625E1,1.1932877E1,9.9359894E-1,5.0787518E1,0E0,7.3049927E-1,0E0,0E0,0E0,1.1512102E0,5.3016876E1,1.0694812E2,3.4475914E1,5.495524E1,2.0492111E1,2.8869879E1,5.1105255E1,7.139711E1,1.760031E1,5.6199356E1,8.281939E0,3.8892517E0,1.3533554E0,0E0,3.7899006E1,3.7445717E1,0E0,0E0,0E0,0E0,0E0,0E0,0E0,0E0,0E0,0E0,0E0,0E0,0E0,0E0,0E0,0E0,0E0,0E0,0E0,0E0,0E0,0E0,0E0,0E0,0E0,0E0,0E0,0E0,0E0,0E0,0E0,0E0,0E0,0E0],"parents":[2147483647,0,0,1,1,2,2,3,3,4,4,5,5,6,6,7,7,8,8,9,9,10,10,11,11,12,12,13,13,14,14,15,15,20,20,22,22,23,23,24,24,25,25,26,26,27,27,28,28,29,29,30,30,32,32,36,36,37,37,38,38,39,39,40,40,41,41,42,42,43,43,44,44,45,45,46,46,47,47,48,48,49,49,51,51,52,52],"right_children":[2,4,6,8,10,12,14,16,18,20,22,24,26,28,30,32,-1,-1,-1,-1,34,-1,36,38,40,42,44,46,48,50,52,-1,54,-1,-1,-1,56,58,60,62,64,66,68,70,72,74,76,78,80,82,-1,84,86,-1,-1,-1,-1,-1,-1,-1,-1,-1,-1,-1,-1,-1,-1,-1,-1,-1,-1,-1,-1,-1,-1,-1,-1,-1,-1,-1,-1,-1,-1,-1,-1,-1,-1],"split_conditions":[-3.9007255E-1,7.766277E-1,-1.181608E-1,2.7382827E0,9.687444E-2,7.802732E-2,-6.993322E-2,8.409473E-1,8.343147E-2,9.845861E-2,-8.804354E-3,9.1084677E-1,2.354195E-1,4.0334332E-1,-1.8585989E-1,-8.546295E-1,7.3156727E-4,1.8784495E-1,-2.9122782E-1,1.4072357E-1,3.4222388E-1,2.7961075E-1,-1.9681397E-1,1.19991556E-1,-7.5497556E-1,5.0501776E-1,-6.488214E-1,3.635881E-1,-1.151133E-1,6.910435E-1,-5.903983E-1,1.5893877E-2,2.4320989E0,-4.5176977E-1,-7.4133374E-2,-3.4593314E-1,-2.9151914E-1,4.7768578E-1,1.4110868E0,9.357002E-1,5.926775E-1,-3.8478095E-2,9.8080677E-1,2.5697434E0,-2.5422746E-1,4.6255445E-1,6.320011E-1,5.6771857E-1,1.126252E0,4.7174883E-1,-2.7974677E-1,-9.846171E-2,1.0124023E0,2.96356E-1,2.0247601E-1,2.3722264E-1,-6.692179E-2,6.1519176E-2,-2.023393E-1,1.6499922E-1,-3.3792624E-1,-3.7749583E-1,2.3133263E-1,-2.7809212E-1,1.0620612E-1,3.3120874E-1,-1.0537347E-1,-2.3972066E-1,2.4908616E-1,-2.910005E-1,2.8508937E-1,-1.9336592E-1,7.147123E-2,3.347169E-1,-2.4839932E-1,-2.8880388E-1,2.8578386E-1,-2.250455E-1,2.2448878E-1,-3.298586E-1,-1.9793954E-1,-5.952146E-1,-2.9837403E-1,1.7533517E-1,-3.402831E-1,1.9547401E-1,-3.0000073E-1],"split_indices":[13,6,7,15,10,25,3,9,9,15,9,17,6,16,20,3,0,0,0,0,8,0,20,17,25,17,10,13,7,11,10,0,26,0,0,0,21,2,11,20,16,1,16,25,26,9,22,4,0,13,0,5,2,0,0,0,0,0,0,0,0,0,0,0,0,0,0,0,0,0,0,0,0,0,0,0,0,0,0,0,0,0,0,0,0,0,0],"split_type":[0,0,0,0,0,0,0,0,0,0,0,0,0,0,0,0,0,0,0,0,0,0,0,0,0,0,0,0,0,0,0,0,0,0,0,0,0,0,0,0,0,0,0,0,0,0,0,0,0,0,0,0,0,0,0,0,0,0,0,0,0,0,0,0,0,0,0,0,0,0,0,0,0,0,0,0,0,0,0,0,0,0,0,0,0,0,0],"sum_hessian":[3.055948E3,3.622328E2,2.693715E3,3.407944E2,2.1438389E1,2.0897175E3,6.0399774E2,3.3818353E2,2.6108537E0,4.0315714E0,1.7406818E1,1.3010328E3,7.886846E2,3.9960648E2,2.0439127E2,3.3709445E2,1.0890862E0,1.6012757E0,1.009578E0,1.1410708E0,2.8905003E0,1.1547918E1,5.8589005E0,1.0549186E3,2.4611435E2,1.3613483E2,6.5254974E2,1.5851208E2,2.4109439E2,2.2726074E1,1.8166519E2,1.0503235E0,3.3604413E2,1.8880571E0,1.0024433E0,1.4281092E0,4.4307914E0,2.7265045E2,7.822681E2,8.81682E1,1.5794615E2,9.230964E1,4.3825188E1,2.862792E2,3.6627057E2,3.2187046E1,1.26325035E2,1.2818186E1,2.282762E2,1.3787348E1,8.938726E0,6.2644264E1,1.1902092E2,3.189583E2,1.7085814E1,3.4262805E0,1.0045108E0,1.4050919E2,1.3214125E2,7.43077E2,3.9191113E1,7.9493454E1,8.674745E0,4.673922E1,1.1120693E2,8.182515E1,1.0484494E1,2.7028141E1,1.6797045E1,2.7245105E2,1.3828129E1,1.9502475E2,1.712458E2,2.7370974E1,4.81607E0,1.09356384E2,1.6968649E1,6.8794584E0,5.9387274E0,1.997166E2,2.85596E1,7.49121E0,6.2961373E0,1.6976942E1,4.5667324E1,1.0413896E2,1.4881959E1],"tree_param":{"num_deleted":"0","num_feature":"29","num_nodes":"87","size_leaf_vector":"1"}},{"base_weights":[-1.7585222E-2,9.137337E-1,-1.18937306E-1,9.3712616E-1,-2.2762851E-1,-8.5088015E-1,-6.4913295E-2,-6.392034E-2,9.4518065E-1,-3.6615962E-1,-3.1756163E-1,-9.278478E-1,-2.0874003E-2,-4.4769854E-3,9.5219976E-1,-9.188391E-1,1.9715357E-1,-1.0310599E0,8.4661883E-1,7.729758E-2,-4.1234392E-1,9.6910787E-1,6.0962003E-1,-1.5046045E-1,-1.0615032E0,-3.2790363E-1,7.4608785E-1,-2.8995523E-1,-1.1638025E0,-2.4474588E-1,4.29742E-1,2.5840676E-1,-2.4768376E-1,-6.558826E-1,1.4133082E-1,2.9187793E-1,2.7173946E-3,-5.974906E-1,2.804017E-1,-2.7044168E-1,1.430878E-1,-7.755774E-2,-3.2615367E-1,-2.4123459E-1,2.576474E-1,2.775802E-1,-1.4201286E-1,1.9960697E-1,-3.0998266E-1,-1.7812045E-1,-3.7841117E-1,1.666501E-1,-3.1034814E-2,-2.525698E-1,1.5593885E-2,-3.7199326E-2,-2.7428538E-1,1.6751342E-1,-2.906412E-1],"categories":[],"categories_nodes":[],"categories_segments":[],"categories_sizes":[],"default_left":[0,0,0,0,0,0,0,0,0,0,0,0,0,0,0,0,0,0,0,0,0,0,0,0,0,0,0,0,0,0,0,0,0,0,0,0,0,0,0,0,0,0,0,0,0,0,0,0,0,0,0,0,0,0,0,0,0,0,0],"id":15,"left_children":[1,3,5,7,-1,9,11,-1,13,15,-1,17,19,-1,21,23,25,27,29,31,33,35,37,39,41,43,45,47,49,-1,-1,51,53,55,57,-1,-1,-1,-1,-1,-1,-1,-1,-1,-1,-1,-1,-1,-1,-1,-1,-1,-1,-1,-1,-1,-1,-1,-1],"loss_changes":[2.6151456E2,1.1349503E1,9.874058E1,2.689911E0,0E0,1.6890228E1,8.844485E1,0E0,1.8130798E0,1.6685047E1,0E0,2.156977E1,8.518827E1,0E0,9.442444E-1,2.7928524E0,8.0485735E0,1.0213051E1,7.753384E0,1.0438185E2,6.001902E1,9.107971E-1,1.4680149E1,2.9664094E0,1.8388367E-1,8.904093E0,3.3970509E0,1.3201771E1,4.29158E0,0E0,0E0,1.2246433E2,1.1307515E2,4.2332733E1,6.3778233E1,0E0,0E0,0E0,0E0,0E0,0E0,0E0,0E0,0E0,0E0,0E0,0E0,0E0,0E0,0E0,0E0,0E0,0E0,0E0,0E0,0E0,0E0,0E0,0E0],"parents":[2147483647,0,0,1,1,2,2,3,3,5,5,6,6,8,8,9,9,11,11,12,12,14,14,15,15,16,16,17,17,18,18,19,19,20,20,21,21,22,22,23,23,24,24,25,25,26,26,27,27,28,28,31,31,32,32,33,33,34,34],"right_children":[2,4,6,8,-1,10,12,-1,14,16,-1,18,20,-1,22,24,26,28,30,32,34,36,38,40,42,44,46,48,50,-1,-1,52,54,56,58,-1,-1,-1,-1,-1,-1,-1,-1,-1,-1,-1,-1,-1,-1,-1,-1,-1,-1,-1,-1,-1,-1,-1,-1],"split_conditions":[1.7710045E-2,1.3287483E0,-7.868021E-2,-8.546295E-1,-2.2762851E-1,3.5467172E-1,-6.1717004E-1,-6.392034E-2,-2.476251E0,-3.2089725E-1,-3.1756163E-1,2.957903E-1,-1.181608E-1,-4.4769854E-3,2.4320989E0,9.845861E-2,2.4615033E-1,5.787758E-2,-5.63756E-1,8.942893E-1,-8.8600874E-2,9.406281E-1,-4.1434604E-1,-1.2921134E-1,6.9311745E-2,4.3030336E-1,1.5615818E-1,2.869551E-1,2.373477E-1,-2.4474588E-1,4.29742E-1,4.9313113E-2,-2.6287287E-1,-9.964606E-1,3.6291265E-1,2.9187793E-1,2.7173946E-3,-5.974906E-1,2.804017E-1,-2.7044168E-1,1.430878E-1,-7.755774E-2,-3.2615367E-1,-2.4123459E-1,2.576474E-1,2.775802E-1,-1.4201286E-1,1.9960697E-1,-3.0998266E-1,-1.7812045E-1,-3.7841117E-1,1.666501E-1,-3.1034814E-2,-2.525698E-1,1.5593885E-2,-3.7199326E-2,-2.7428538E-1,1.6751342E-1,-2.906412E-1],"split_indices":[16,15,17,3,0,11,26,0,2,10,0,0,7,0,26,15,27,17,24,0,10,0,21,20,13,3,12,13,9,0,0,27,26,14,8,0,0,0,0,0,0,0,0,0,0,0,0,0,0,0,0,0,0,0,0,0,0,0,0],"split_type":[0,0,0,0,0,0,0,0,0,0,0,0,0,0,0,0,0,0,0,0,0,0,0,0,0,0,0,0,0,0,0,0,0,0,0,0,0,0,0,0,0,0,0,0,0,0,0,0,0,0,0,0,0,0,0,0,0,0,0],"sum_hessian":[2.7683906E3,2.7091858E2,2.4974722E3,2.6761526E2,3.3033235E0,1.7065172E2,2.3268203E3,1.6840024E0,2.6593124E2,5.2010666E1,1.1864106E2,1.1200732E2,2.214813E3,1.9218822E0,2.6400937E2,2.5934551E1,2.6076113E1,1.0624644E2,5.7608857E0,1.7713916E3,4.4342145E2,2.4984917E2,1.416021E1,4.3829494E0,2.1551601E1,1.3533723E1,1.2542391E1,1.6623194E1,8.962324E1,1.3988729E0,4.362013E0,1.1376143E3,6.3377734E2,3.0783356E2,1.3558789E2,2.4884598E2,1.0031819E0,1.0033891E0,1.315682E1,1.7961695E0,2.5867798E0,1.0107398E0,2.0540861E1,9.888189E0,3.6455336E0,1.1145936E1,1.3964543E0,7.320197E0,9.302997E0,1.4132963E1,7.549028E1,6.244165E2,5.1319775E2,2.118605E2,4.2191684E2,1.0113693E2,2.0669662E2,9.8922455E1,3.666544E1],"tree_param":{"num_deleted":"0","num_feature":"29","num_nodes":"59","size_leaf_vector":"1"}},{"base_weights":[-1.7494194E-2,8.788823E-1,-1.0164306E-1,9.323152E-1,3.2294032E-1,-4.2219285E-2,-8.2666206E-1,9.4324446E-1,1.3533892E-1,7.54125E-1,-1.8037009E-1,-7.94903E-1,1.6805159E-2,8.497546E-1,-9.6851987E-1,9.662023E-1,5.1448005E-1,-2.0669588E-1,1.9808327E-1,2.7354634E-1,-3.5356697E-2,-6.443722E-1,2.1578297E-1,-9.5800054E-1,-3.589417E-1,6.212808E-2,-8.502579E-1,2.834753E-1,-6.0524084E-2,1.3455327E-1,-1.1259677E0,9.712777E-1,2.3387797E-2,-5.868822E-1,2.7460945E-1,-4.7501307E-2,-3.5692334E-1,-3.00226E-1,-2.7044445E-1,-9.329218E-1,3.0906913E-1,-2.746404E-1,1.892396E-1,-1.1053852E0,3.453814E-1,7.932314E-1,-9.3748724E-1,-6.3213897E-1,-1.2314764E0,2.2920446E-2,2.9284832E-1,-1.576256E-1,1.5480477E-1,-2.3496032E-1,6.808427E-2,-2.874175E-1,-9.0927236E-2,2.665996E-1,-2.4384691E-1,2.4342771E-1,-1.3401313E-1,-2.558871E-1,7.91139E-2,4.8373044E-2,-3.3803603E-1,3.0231884E-1,-2.812885E-1,2.9702154E-1,-1.1136258E-1,-6.1320264E-2,-3.0254418E-1,1.635356E-1,-2.6455742E-1,-1.035428E-1,-3.8844776E-1],"categories":[],"categories_nodes":[],"categories_segments":[],"categories_sizes":[],"default_left":[0,0,0,0,0,0,0,0,0,0,0,0,0,0,0,0,0,0,0,0,0,0,0,0,0,0,0,0,0,0,0,0,0,0,0,0,0,0,0,0,0,0,0,0,0,0,0,0,0,0,0,0,0,0,0,0,0,0,0,0,0,0,0,0,0,0,0,0,0,0,0,0,0,0,0],"id":16,"left_children":[1,3,5,7,9,11,13,15,17,19,21,23,25,27,29,31,33,-1,-1,-1,-1,35,-1,37,39,41,43,-1,-1,45,47,49,-1,-1,-1,51,-1,-1,53,55,57,59,61,63,65,67,69,71,73,-1,-1,-1,-1,-1,-1,-1,-1,-1,-1,-1,-1,-1,-1,-1,-1,-1,-1,-1,-1,-1,-1,-1,-1,-1,-1],"loss_changes":[1.9478455E2,6.2822723E0,1.0166553E2,1.6288452E0,4.685335E0,9.698738E1,4.3335495E1,1.4594421E0,2.1405945E0,1.6865101E0,4.837962E0,1.094355E1,7.963251E1,1.6395102E0,2.885762E1,7.696533E-1,1.3914851E1,0E0,0E0,0E0,0E0,2.3656764E0,0E0,3.107605E0,1.747285E1,8.247193E1,3.1087822E1,0E0,0E0,1.5952623E1,6.7632904E0,7.398529E-1,0E0,0E0,0E0,1.5084567E0,0E0,0E0,2.2431135E0,9.519768E-2,1.4679031E1,9.903412E1,1.087616E2,2.4370117E0,1.6635641E1,3.5496368E0,2.4433327E-1,8.575923E0,6.1904755E0,0E0,0E0,0E0,0E0,0E0,0E0,0E0,0E0,0E0,0E0,0E0,0E0,0E0,0E0,0E0,0E0,0E0,0E0,0E0,0E0,0E0,0E0,0E0,0E0,0E0,0E0],"parents":[2147483647,0,0,1,1,2,2,3,3,4,4,5,5,6,6,7,7,8,8,9,9,10,10,11,11,12,12,13,13,14,14,15,15,16,16,21,21,23,23,24,24,25,25,26,26,29,29,30,30,31,31,35,35,38,38,39,39,40,40,41,41,42,42,43,43,44,44,45,45,46,46,47,47,48,48],"right_children":[2,4,6,8,10,12,14,16,18,20,22,24,26,28,30,32,34,-1,-1,-1,-1,36,-1,38,40,42,44,-1,-1,46,48,50,-1,-1,-1,52,-1,-1,54,56,58,60,62,64,66,68,70,72,74,-1,-1,-1,-1,-1,-1,-1,-1,-1,-1,-1,-1,-1,-1,-1,-1,-1,-1,-1,-1,-1,-1,-1,-1,-1,-1],"split_conditions":[-3.9007255E-1,-8.804354E-3,-2.2730784E-2,1.2006559E0,-2.785773E-1,-9.7738564E-1,-6.3181645E-1,2.4320989E0,-1.0750483E0,9.1431504E-1,-2.1599518E-1,7.8668E-1,1.335369E0,1.4599174E-1,-9.6341026E-1,3.3387065E0,-3.51537E-1,-2.0669588E-1,1.9808327E-1,2.7354634E-1,-3.5356697E-2,-9.961306E-2,2.1578297E-1,9.0751356E-1,-1.4354981E-1,-2.9845357E-1,1.3440873E-1,2.834753E-1,-6.0524084E-2,3.539159E-1,-4.044072E-1,-8.546295E-1,2.3387797E-2,-5.868822E-1,2.7460945E-1,2.5247552E0,-3.5692334E-1,-3.00226E-1,1.8204418E0,1.5247341E0,1.2036905E0,-6.423339E-1,-3.6962205E-1,-7.370581E-1,-5.2023995E-1,4.7173208E-1,-1.4338659E-1,-1.7174616E-2,-2.7867538E-1,2.2920446E-2,2.9284832E-1,-1.576256E-1,1.5480477E-1,-2.3496032E-1,6.808427E-2,-2.874175E-1,-9.0927236E-2,2.665996E-1,-2.4384691E-1,2.4342771E-1,-1.3401313E-1,-2.558871E-1,7.91139E-2,4.8373044E-2,-3.3803603E-1,3.0231884E-1,-2.812885E-1,2.9702154E-1,-1.1136258E-1,-6.1320264E-2,-3.0254418E-1,1.635356E-1,-2.6455742E-1,-1.035428E-1,-3.8844776E-1],"split_indices":[13,9,1,6,19,3,11,26,23,6,18,14,8,2,19,1,25,0,0,0,0,22,0,16,26,21,20,0,0,13,19,3,0,0,0,16,0,0,15,6,14,19,22,6,12,11,22,1,13,0,0,0,0,0,0,0,0,0,0,0,0,0,0,0,0,0,0,0,0,0,0,0,0,0,0],"split_type":[0,0,0,0,0,0,0,0,0,0,0,0,0,0,0,0,0,0,0,0,0,0,0,0,0,0,0,0,0,0,0,0,0,0,0,0,0,0,0,0,0,0,0,0,0,0,0,0,0,0,0,0,0,0,0,0,0,0,0,0,0,0,0,0,0,0,0,0,0,0,0,0,0,0,0],"sum_hessian":[2.5801697E3,2.2062013E2,2.3595496E3,2.0065746E2,1.9962671E1,2.1817852E3,1.7776454E2,1.9776193E2,2.895526E0,1.04833145E1,9.479357E0,1.5774484E2,2.0240403E3,1.3479479E1,1.6428506E2,1.8652135E2,1.1240583E1,1.0049375E0,1.8905884E0,8.839091E0,1.6442235E0,6.441062E0,3.038295E0,1.1392639E2,4.3818455E1,1.9243779E3,9.966229E1,1.24537525E1,1.0257267E0,2.053851E1,1.4374655E2,1.8536867E2,1.1526853E0,1.0275629E0,1.0213021E1,3.5943751E0,2.846687E0,1.0682821E2,7.0981784E0,2.3354671E1,2.0463783E1,5.269964E2,1.3973816E3,8.2198204E1,1.746409E1,1.2883043E1,7.655466E0,2.653624E1,1.1721031E2,1.0964029E0,1.8427226E2,1.9814887E0,1.6128863E0,3.2121692E0,3.8860095E0,2.1957226E1,1.3974462E0,1.3630057E1,6.8337255E0,7.156692E1,4.5542947E2,9.249757E1,1.3048839E3,1.2572092E0,8.0940994E1,1.165949E1,5.804601E0,1.1148254E1,1.7347885E0,1.0184078E0,6.6370583E0,4.4367967E0,2.2099443E1,8.248744E0,1.0896157E2],"tree_param":{"num_deleted":"0","num_feature":"29","num_nodes":"75","size_leaf_vector":"1"}},{"base_weights":[-1.7380863E-2,8.4856576E-1,-8.2850926E-2,9.095706E-1,2.6937568E-1,-3.9554466E-2,-8.5315204E-1,9.2048466E-1,-7.972905E-2,-6.263252E-1,6.199436E-1,-4.659572E-1,4.3658044E-2,7.361735E-1,-9.92721E-1,9.498824E-1,4.531635E-1,1.0628312E-1,-9.387904E-1,7.4448305E-1,-7.9737395E-2,-1.2836158E-1,-9.1127336E-1,-3.2093814E-1,1.679525E-1,2.8557232E-1,-1.8669477E-1,-1.1670043E0,-2.0049222E-1,9.564537E-1,1.9914156E-2,-5.844183E-1,2.7017817E-1,-3.5273618E-1,-1.9396411E-2,2.7098352E-1,-1.3909529E-1,1.2651302E-1,-1.1215347E0,9.4689536E-1,-1.0068593E0,-4.992252E-1,8.904688E-1,3.515984E-1,-2.2930421E-1,-1.2151452E0,-7.791039E-2,-9.260958E-1,5.093359E-1,1.9568197E-2,2.8884357E-1,4.502158E-1,-1.3148648E-2,-3.752613E-1,-7.358131E-2,-1.7162037E-1,3.7953788E-1,-3.203202E-1,-9.9108174E-2,-1.8755701E-1,1.9091958E-1,3.6871064E-1,-1.9518138E-1,1.3413955E-1,-2.2153433E-1,-2.5706568E-1,-5.7345405E-3,1.0022609E-2,-3.690614E-1,-2.3550938E-1,1.8717867E-1,-3.5798514E-1,5.940697E-2,2.3884013E-1,-2.4430169E-1],"categories":[],